{
  "model_type": "linear_q",
  "n_features": 37,
  "n_actions": 31,
  "learning_rate": 0.03,
  "gamma": 0.95,
  "gradient_clip": 5.0,
  "feature_names": [
    "bias",
    "battery_pct",
    "battery_drain_rate",
    "solar_a_output",
    "solar_b_output",
    "bus_voltage",
    "star_tracker_error",
    "gyro_error",
    "sun_sensor_error",
    "fuel_units",
    "signal_strength",
    "battery_temp",
    "episode_progress",
    "science_a_online",
    "science_b_online",
    "heaters_online",
    "transponder_online",
    "last_action_error",
    "last_action_refused",
    "last_action_diag",
    "attitude_mode_nominal",
    "attitude_mode_thruster",
    "attitude_mode_tumbling",
    "rw_status_nominal",
    "rw_status_degraded",
    "rw_status_failed",
    "transponder_status_nominal",
    "transponder_status_degraded",
    "transponder_status_offline",
    "link_bandwidth_high",
    "link_bandwidth_low",
    "link_bandwidth_none",
    "mission_status_nominal",
    "mission_status_degraded",
    "mission_status_critical",
    "mission_status_recovered",
    "mission_status_lost"
  ],
  "action_specs": [
    {
      "index": 0,
      "command": "shed_load",
      "target": "science_a",
      "label": "shed_load:science_a"
    },
    {
      "index": 1,
      "command": "shed_load",
      "target": "science_b",
      "label": "shed_load:science_b"
    },
    {
      "index": 2,
      "command": "shed_load",
      "target": "heaters",
      "label": "shed_load:heaters"
    },
    {
      "index": 3,
      "command": "shed_load",
      "target": "transponder",
      "label": "shed_load:transponder"
    },
    {
      "index": 4,
      "command": "restore_load",
      "target": "science_a",
      "label": "restore_load:science_a"
    },
    {
      "index": 5,
      "command": "restore_load",
      "target": "science_b",
      "label": "restore_load:science_b"
    },
    {
      "index": 6,
      "command": "restore_load",
      "target": "heaters",
      "label": "restore_load:heaters"
    },
    {
      "index": 7,
      "command": "restore_load",
      "target": "transponder",
      "label": "restore_load:transponder"
    },
    {
      "index": 8,
      "command": "switch_to_backup_battery",
      "target": null,
      "label": "switch_to_backup_battery"
    },
    {
      "index": 9,
      "command": "reset_power_controller",
      "target": null,
      "label": "reset_power_controller"
    },
    {
      "index": 10,
      "command": "reconfigure_power",
      "target": "solar_a",
      "label": "reconfigure_power:solar_a"
    },
    {
      "index": 11,
      "command": "reconfigure_power",
      "target": "solar_b",
      "label": "reconfigure_power:solar_b"
    },
    {
      "index": 12,
      "command": "stabilize_attitude",
      "target": null,
      "label": "stabilize_attitude"
    },
    {
      "index": 13,
      "command": "switch_to_thruster_control",
      "target": null,
      "label": "switch_to_thruster_control"
    },
    {
      "index": 14,
      "command": "desaturate_wheels",
      "target": null,
      "label": "desaturate_wheels"
    },
    {
      "index": 15,
      "command": "recalibrate_star_tracker",
      "target": null,
      "label": "recalibrate_star_tracker"
    },
    {
      "index": 16,
      "command": "cross_validate_attitude",
      "target": null,
      "label": "cross_validate_attitude"
    },
    {
      "index": 17,
      "command": "switch_attitude_reference",
      "target": "star_tracker",
      "label": "switch_attitude_reference:star_tracker"
    },
    {
      "index": 18,
      "command": "switch_attitude_reference",
      "target": "gyro",
      "label": "switch_attitude_reference:gyro"
    },
    {
      "index": 19,
      "command": "switch_attitude_reference",
      "target": "sun_sensor",
      "label": "switch_attitude_reference:sun_sensor"
    },
    {
      "index": 20,
      "command": "recalibrate_imu",
      "target": null,
      "label": "recalibrate_imu"
    },
    {
      "index": 21,
      "command": "query_power_level",
      "target": "battery",
      "label": "query_power_level:battery"
    },
    {
      "index": 22,
      "command": "query_power_level",
      "target": "solar_a",
      "label": "query_power_level:solar_a"
    },
    {
      "index": 23,
      "command": "query_power_level",
      "target": "solar_b",
      "label": "query_power_level:solar_b"
    },
    {
      "index": 24,
      "command": "query_attitude",
      "target": null,
      "label": "query_attitude"
    },
    {
      "index": 25,
      "command": "query_thermal",
      "target": null,
      "label": "query_thermal"
    },
    {
      "index": 26,
      "command": "diagnostic_scan",
      "target": "power",
      "label": "diagnostic_scan:power"
    },
    {
      "index": 27,
      "command": "diagnostic_scan",
      "target": "attitude",
      "label": "diagnostic_scan:attitude"
    },
    {
      "index": 28,
      "command": "diagnostic_scan",
      "target": "comms",
      "label": "diagnostic_scan:comms"
    },
    {
      "index": 29,
      "command": "safe_mode",
      "target": null,
      "label": "safe_mode"
    },
    {
      "index": 30,
      "command": "resume_nominal",
      "target": null,
      "label": "resume_nominal"
    }
  ],
  "weights": [
    [
      0.1720056499242253,
      0.024943028626918714,
      0.0014560902646468064,
      0.08675028164653556,
      0.04991684095201081,
      0.17647137103606725,
      -0.016113086596204577,
      -0.028145861163932466,
      -0.04385538964164443,
      0.41022090670869416,
      -0.004562316349788705,
      0.16987254850209468,
      -0.2897023424462132,
      0.05126604200831811,
      0.23578782293827838,
      0.2611596464337956,
      0.002563031304383104,
      0.008954178849140114,
      0.07448225609377888,
      -0.014046711382081582,
      0.4338444969564348,
      -0.09704908617016257,
      -0.15364029125352316,
      0.062245806298869125,
      0.10546251308765514,
      -0.01114619260361261,
      -0.032284299094141565,
      0.02956042582488421,
      0.17435955915973728,
      -0.02682193230293086,
      0.02601616802100727,
      0.17819298241577314,
      0.1058572928475498,
      0.3436790733363456,
      -0.29060467934335155,
      -0.0058808257436134695,
      0.003607999463635719
    ],
    [
      0.1361454413183575,
      0.09619806651047323,
      -0.024204091815284077,
      0.20704082870558177,
      0.23360752949303815,
      0.140105604625946,
      -0.060038854554000716,
      -0.010302488102215686,
      -0.012978604380685162,
      0.33528158354686133,
      -0.01521895139743966,
      0.1351474081752893,
      -0.33804564639776274,
      0.1407368346639807,
      0.1756010027606182,
      0.13489543919623384,
      0.04484433524181226,
      -0.006960309306789905,
      -0.05216024738535738,
      -0.20501010918203455,
      0.32300399543505265,
      -0.09490699366907672,
      -0.08038715330051437,
      0.04042181192743323,
      0.10095628977111584,
      0.003905907325473185,
      -0.06355411929241814,
      0.08116049200997935,
      0.12259663074118651,
      -0.05864216122426765,
      0.08845620982648825,
      0.12295449086355117,
      0.09446896987858308,
      0.2371403884765408,
      -0.195489490062628,
      0.0029425770905533756,
      0.009861918789332682
    ],
    [
      0.13865308548708608,
      -0.0029373596708540256,
      0.005846675720772154,
      0.19557015064887773,
      0.18744449517666728,
      0.13413487430092152,
      -0.012897182606658546,
      -0.04799740279275282,
      -0.03745421874377821,
      0.2836536370981748,
      0.0047417926922148634,
      0.15133258014026957,
      -0.04399719626189677,
      -0.04500630398434622,
      0.04253454338995587,
      0.13604733992516496,
      0.08751228500310039,
      0.00766767652883025,
      0.006385596756714825,
      -0.0647297237317738,
      0.37483600789549004,
      -0.05426220526420897,
      -0.197309437935245,
      0.22926229482074814,
      -0.08974547229669566,
      0.0025546659699054912,
      -0.0011243293360381074,
      0.07581130806245587,
      0.04035782460828961,
      0.005050570700981652,
      0.08295464080071026,
      0.04094603532064315,
      0.07329474201788579,
      0.30595273489579783,
      -0.2611870136106892,
      0.0013268244741278384,
      0.009061958510501905
    ],
    [
      0.1597644416542474,
      0.046056975060477276,
      0.016064791930675424,
      0.2577392927752197,
      0.3528402788504726,
      0.17061002095282465,
      -0.1372429940691169,
      -0.12006899208880473,
      -0.12102809243920067,
      0.2975359268250907,
      0.03685449530208837,
      0.17785756867540495,
      -0.28974909511772273,
      0.02484486684908981,
      0.22762127173817995,
      0.26211780255872613,
      0.10265433821583538,
      -0.003198926955353132,
      -0.01656856176398709,
      -0.1396535802389275,
      0.2728119752724016,
      -0.0799366810168792,
      -0.05459394129726306,
      0.14835532761468434,
      0.016154505938433615,
      -0.008277220005021159,
      -0.021343437440459145,
      0.11537554441337235,
      0.04688641729744776,
      -0.017031178356511297,
      0.1127872338974747,
      0.05691736490606601,
      0.29303328897044917,
      0.22498057823451176,
      -0.3532007619478148,
      -0.008282306768876688,
      -0.007956247665036631
    ],
    [
      0.15661680413668172,
      0.12486268612861916,
      0.018494757102368843,
      0.21354742443216831,
      0.1670996857362863,
      0.17309073650614148,
      -0.07718870021069252,
      -0.07782730449534221,
      -0.0703710248837075,
      0.29432605108924237,
      0.053203963001181506,
      0.16448415387421353,
      -0.14336199715913822,
      -0.1663992362640449,
      0.12121616959678622,
      0.3433079974152948,
      0.014336600497084333,
      0.005438758168040625,
      0.047076148921268254,
      0.0014246933491732765,
      0.3167916381782369,
      -0.11641112317271285,
      -0.04333206933521158,
      0.11747061685235634,
      0.059044567506216235,
      0.006121571695713349,
      0.029430605223518546,
      -0.003956105896050416,
      0.13998849711900693,
      0.023416720841881077,
      -0.011642315436465517,
      0.13603331033320257,
      0.038449970682312706,
      0.34997854984330173,
      -0.2473338335990157,
      0.003850438834002467,
      0.009130301526826758
    ],
    [
      0.0522476779594518,
      -0.007628868181436141,
      0.027508948313509047,
      0.14344704804939923,
      0.2063551246432732,
      0.048986965249813094,
      -0.18179527322097033,
      -0.18668808205200838,
      -0.1965903074671405,
      0.36195882857586703,
      0.015276468155546244,
      0.1595855121086,
      -0.26936462417428236,
      -0.0761648289934236,
      -0.04335939308504992,
      0.19411007589576587,
      -0.008080045203041716,
      0.008195542751034459,
      0.03444997294699212,
      -0.033840949806258874,
      0.3021660330095086,
      -0.06368777026219953,
      -0.18626134046415482,
      0.042003171152091914,
      0.16396676862725124,
      -0.14056685422035683,
      -0.08231146083159797,
      0.06192296524965508,
      0.07857206637410094,
      -0.07573225742030261,
      0.05729530209173896,
      0.06217689359076037,
      0.056449709528867284,
      0.2845297045081759,
      -0.28042619406998714,
      -0.007076513825122517,
      0.006530209570507742
    ],
    [
      0.12426609455271771,
      -0.005385729757395916,
      0.004787846515621091,
      0.1265969785390851,
      0.12762693851083134,
      0.10690955719786359,
      0.03351826747491442,
      0.021221961181088392,
      0.019657143486928416,
      0.1808522137879502,
      0.010887790951533919,
      0.07669301098706946,
      -0.25389550690731705,
      -0.06458105405907828,
      0.053922851482804464,
      -0.2390662598445056,
      0.09926053400182135,
      0.0017287433633192337,
      -0.1258991092802181,
      0.04573544619485831,
      0.3250283053196487,
      -0.11705453289514516,
      -0.09541630160528054,
      0.10223619735620003,
      0.025583582594109984,
      -0.004243673605420682,
      0.03362892322978694,
      0.09638895904067556,
      -0.008557940663246402,
      0.03585285706432428,
      0.0885046690655656,
      -0.01821682212754265,
      -0.005798481409576785,
      0.22483352010713611,
      -0.12183175738412687,
      0.005983409009844435,
      -0.006553065755731022
    ],
    [
      0.14084273074271372,
      0.14484350962073891,
      0.02481856924100066,
      0.4133876986498023,
      0.21757257474808747,
      0.14806636349038363,
      -0.10419625719733756,
      -0.1373303265661194,
      -0.12959170518565685,
      0.5300700776773573,
      -0.022085207769032576,
      0.08964714760343752,
      -0.3806750322219203,
      -0.016701119451169887,
      0.10857975240564374,
      0.1200585263286041,
      -0.1127707135482937,
      0.0022505576868892072,
      0.012648165305131085,
      0.01881021031152775,
      0.42560876275335063,
      0.06861231974790152,
      -0.3492809657599315,
      0.007166607857591234,
      0.10015037855227629,
      0.046430992238624916,
      0.02032590798183163,
      0.006977910838236276,
      0.12563522055744433,
      0.01398547447617408,
      0.006999639752434436,
      0.13724337034295467,
      0.27011333675043103,
      0.38413306306602896,
      -0.5288560381518637,
      -0.008549078006870235,
      -0.005187224830934602
    ],
    [
      0.1588400186094628,
      -0.10267424264566162,
      0.0017402336948412558,
      0.09378206090465284,
      0.20483395426541634,
      0.173047666962257,
      0.01749733458021064,
      -0.030136821258077654,
      -0.01990809589479162,
      0.3354205403891271,
      0.03501220051193963,
      0.20470155443871252,
      -0.2820987035237868,
      0.09096169624503485,
      0.10303869205620603,
      0.14191831579523945,
      0.17391486691694918,
      -0.0013695636400472225,
      -0.012988877075862663,
      -0.048171183684597815,
      0.3109581467241713,
      0.019914985014249476,
      -0.16876710707615536,
      -0.025158147796395837,
      0.17184923353848328,
      0.010966343081190337,
      0.011147754266136482,
      0.13973744152337816,
      0.005962546357712012,
      0.021031360338864942,
      0.13439329959235344,
      0.013185669762556747,
      0.07723540144372873,
      0.3206329754472133,
      -0.2231940014405833,
      -0.004688714553129605,
      -0.009208236201718647
    ],
    [
      0.17682557906530524,
      -0.02737296488927236,
      0.009310506326691757,
      0.23501473966378372,
      0.24216032988438918,
      0.17896644014203192,
      -0.08362493007233951,
      -0.12020099299541398,
      -0.10993470816358857,
      0.39187754221668697,
      0.03448834902881264,
      0.14482549438655964,
      -0.24163445913569934,
      -0.02485602065854786,
      0.1318813327602104,
      0.24363313205281986,
      -0.054127397670146314,
      0.0026887901259311908,
      0.0358386020678937,
      -0.039460694137358296,
      0.3744788257371112,
      -0.03149536426547955,
      -0.16602530820167521,
      0.06842893015860181,
      0.09867520627049685,
      0.0010612823691607005,
      0.034887760913110195,
      0.08439918560748327,
      0.04843376055623397,
      0.026892675762229097,
      0.08381071406316128,
      0.04803829385991307,
      0.036881353679604004,
      0.4123807508272443,
      -0.299744532891388,
      -0.0037601519184304634,
      -0.0038998920424154647
    ],
    [
      0.15137726799428805,
      0.16044193208777854,
      0.009404811991877203,
      -0.04926516387018611,
      0.23101236582360943,
      0.1513228724283773,
      -0.014668413110246494,
      -0.03348793451101805,
      -0.02143620648030386,
      0.37600577533208257,
      0.07241367913116215,
      0.10939317223608042,
      -0.28666179745292936,
      -0.08470516672706642,
      0.10860660412493334,
      0.2992758163187329,
      0.08249920799354671,
      0.006692278666604453,
      0.019678648859235117,
      -0.21961787883100092,
      0.28075503740114915,
      -0.09162188994520325,
      -0.03268810653116915,
      0.12170820460336815,
      0.1959353456811781,
      -0.1579564695143154,
      0.023121463315955708,
      0.03574995659873427,
      0.07344865149263753,
      0.017623880764836557,
      0.03021336930730975,
      0.08717866472052736,
      -0.05831362654474257,
      0.44190551938895417,
      -0.25733808455481416,
      0.006825379637015129,
      0.007410756424954966
    ],
    [
      0.17286997686427708,
      0.13582112961915624,
      -0.012420531731555147,
      0.3107980998589524,
      -0.16741903570137262,
      0.16597693046430934,
      0.010669720371474707,
      -0.0009971715240386296,
      0.006077071974811648,
      0.42177966422996543,
      0.01687759137890222,
      0.12245322101683108,
      -0.3256350863204379,
      -0.03289183008553435,
      0.1159263698844091,
      0.16398060046318244,
      0.0174245453898837,
      -0.0005071274520562791,
      0.04294359983387332,
      -0.12600584111060276,
      0.442927954266385,
      -0.12310139312098152,
      -0.1648903531029015,
      0.11594221285297548,
      0.06345631008110623,
      -0.02932078151075744,
      0.01883652932760311,
      0.008711123524929872,
      0.1231024235292783,
      0.030098312071830564,
      0.013210023286305293,
      0.13345704480118203,
      0.17026076474462787,
      0.3045193446313748,
      -0.29026844233165167,
      -0.0022096705787910008,
      -0.0034773049174730095
    ],
    [
      0.1903829382291855,
      -0.05586133871663902,
      0.010157624164178416,
      0.1367978289963807,
      0.2397450688960569,
      0.18962043930901004,
      0.12930135202929868,
      0.08607106946638977,
      0.08081013578691755,
      0.4273459041393489,
      -0.010555260367501802,
      0.2743584657072226,
      -0.3120589319948011,
      0.03726913561660655,
      0.35500079805185286,
      0.27114640060082534,
      0.12268286731532191,
      0.007856594728110155,
      -0.08507728694590613,
      -0.06509308806857098,
      0.4109440307415286,
      -0.022617398806708544,
      -0.22975438651219346,
      0.06714376160093906,
      0.10239147741820206,
      0.007182020454601646,
      0.0018821286403584176,
      0.08261311231427582,
      0.10244353185206356,
      0.004324867232056053,
      0.07984365644104752,
      0.08998528921596481,
      0.30044957353191115,
      0.27793736546252396,
      -0.3867199029735949,
      0.0007039962845954185,
      0.0031859897860869978
    ],
    [
      0.12649002405494755,
      0.12145363090325086,
      -0.0022703232247232212,
      0.08166783508069975,
      0.16651494525365723,
      0.14057671163574964,
      -0.03749579035997314,
      -0.024826214808602812,
      -0.028144422129410582,
      0.23178221865077073,
      0.03805135584662453,
      0.18355686299215274,
      -0.06833039388232989,
      -0.04917809186555356,
      0.08128503617472999,
      0.21986916620329297,
      0.11111795216965409,
      -0.007051498542461851,
      0.013041128902082226,
      -0.046365582437235084,
      0.2415080371983201,
      -0.05133838485553708,
      -0.06730767442920889,
      -0.022128016194369417,
      0.14243266406498842,
      0.004893076230047918,
      0.019551446556140894,
      0.06419344277768779,
      0.05459911375292754,
      0.016038456985620075,
      0.05997254670891859,
      0.058108767270277896,
      0.03512100783961125,
      0.3656712892472753,
      -0.2713949637816551,
      0.009562514735140538,
      0.008725086819074327
    ],
    [
      0.15111276045604083,
      0.0776088706109625,
      0.014304430487156374,
      0.24952698755117628,
      0.2873864208447882,
      0.15784405470631127,
      -0.029960062774165214,
      -0.0014676154967495662,
      -0.031585947420409946,
      0.3567463534178828,
      -0.029480560484169176,
      0.18082063408789684,
      -0.11350486255609776,
      0.04278292451755181,
      0.12711918403660397,
      0.258543014698492,
      0.06845440457001964,
      0.0040667407758814885,
      0.03235299698457508,
      -0.08671564218279638,
      0.3502063902501595,
      -0.009888432180628494,
      -0.19926397610607235,
      -0.2006350695397179,
      0.3578030974156838,
      -0.0015172075110877637,
      -0.022878952811314815,
      0.07723298985803786,
      0.09242354253419617,
      -0.008888476543508678,
      0.070388614567829,
      0.10111666245012312,
      0.31200633012692675,
      0.2008529279457447,
      -0.3443855666903834,
      0.004260471315938475,
      0.008031331261978717
    ],
    [
      0.16930190748213994,
      0.11213236611380903,
      0.011169312896988862,
      0.05973255374982292,
      0.17341871680176466,
      0.1693000622771424,
      0.2423431212274228,
      0.07860541743042335,
      0.060600689785904216,
      0.36530699902052105,
      -0.0492451610759203,
      0.25178623663706223,
      -0.46014881341760416,
      0.18506157997274342,
      0.2210627969294064,
      0.13721656240297547,
      0.06515023419060796,
      -0.002533014299699268,
      0.03996159266611406,
      -0.07830812422033051,
      0.39253997879910285,
      -0.07131716311878966,
      -0.13059192820169874,
      -0.09120018743629618,
      0.26831994578513363,
      0.01057549052333858,
      -0.017309730671045853,
      0.04120626280642216,
      0.14426249468438954,
      -0.003245891175102827,
      0.03944902764574244,
      0.14096945263120578,
      0.0842300371640124,
      0.35215569631813276,
      -0.2708191797411201,
      -0.0005563182510634306,
      -0.0031267429468414144
    ],
    [
      0.20482805886227845,
      0.08812330055793963,
      0.01345160355827585,
      0.20220462311591533,
      0.25905726180957167,
      0.2066317928455294,
      0.02878142241785424,
      -0.018708491869402794,
      -0.04108877205532222,
      0.3035203082508058,
      0.01036579747886585,
      0.18018480814300677,
      -0.3817268820034173,
      -0.06189192684111522,
      0.2309355138865589,
      0.20095732058424523,
      0.1254523308105317,
      -0.0072080787200055575,
      -0.15739317965042937,
      -0.055588810288024884,
      0.31772893335383734,
      -0.05172690258485385,
      -0.07368588613196699,
      -0.0077698803842442595,
      0.23090357407991113,
      -0.009956536750631668,
      -0.002802561734539768,
      0.07091640465024059,
      0.14228523540885774,
      -0.0073123510316154515,
      0.07019808775061342,
      0.1407716259706575,
      0.06860183285999685,
      0.35396479142649484,
      -0.21754878018558588,
      -0.007482523964829271,
      6.79149522223605e-05
    ],
    [
      0.12697850073551564,
      0.11153626754430399,
      0.00514073225168836,
      0.1936618892567226,
      0.2756676664677803,
      0.12163830242216497,
      -0.05929229475287188,
      -0.030174900963759493,
      -0.03389437777493508,
      0.22168407541339633,
      0.03205982326876768,
      0.14389409844215562,
      -0.15173243341113746,
      0.015175578709725364,
      0.1377390964128368,
      0.12842232518599597,
      0.10451431457726917,
      -0.0021695780858042094,
      0.1327125502951144,
      0.019914285763302283,
      0.38432128587538184,
      -0.19010579525277266,
      -0.05830614642803934,
      0.03948845553558022,
      0.07016599477129974,
      0.0004473121422361604,
      0.04237654621169979,
      0.11397401156768251,
      -0.01505857695799074,
      0.04168200737069334,
      0.1104402113337062,
      -0.020346781898548293,
      0.11715462057540266,
      0.2807156932680159,
      -0.27601743539327384,
      -0.005348463420661944,
      0.008398402189849575
    ],
    [
      0.11321457421714445,
      0.021985025910994393,
      -0.009146999423598314,
      0.11572122286192811,
      0.08582559231595961,
      0.11588320096508481,
      0.039409611135087605,
      0.010113280610000634,
      0.0214258617996118,
      0.4289938857011282,
      -0.0519705303154806,
      0.11133197607405576,
      -0.19070710343817696,
      0.05457542935694698,
      0.3385368016124896,
      0.1358164587762147,
      0.04364645285140899,
      0.0028915127872543335,
      0.019667862163543375,
      0.0008963434176828093,
      0.37180770484253484,
      -0.09594219501316899,
      -0.16671223692212433,
      0.2295155222790815,
      -0.11716198307066233,
      -0.011372303021843907,
      -0.03544087634529056,
      0.05420733097551093,
      0.09339379163675747,
      -0.040261958796784326,
      0.05406516671195761,
      0.10349669075439503,
      0.045704508659874826,
      0.3037263194392893,
      -0.25714766807015493,
      -0.0015888630803942844,
      0.0036513336593446445
    ],
    [
      0.09040117206021364,
      0.1673450028103051,
      0.0019168637234159816,
      0.17306802112103808,
      0.046068034730383796,
      0.10456133791597348,
      -0.079592594268102,
      -0.0651100517767271,
      -0.08037924167503507,
      0.3381295821426566,
      0.061676724400348264,
      0.09364513357459127,
      -0.15146349314460322,
      0.09756227077454267,
      -0.06026028978496373,
      0.10537798092593569,
      0.047747865406131955,
      0.0033058850551273018,
      0.00919267575663597,
      0.013466225767140237,
      0.37092959323981434,
      -0.1757401096015037,
      -0.0971393292220018,
      -0.07779192639143334,
      0.15810653807096292,
      -0.00879729491709101,
      0.04687281110909466,
      -0.027955978243991125,
      0.09102420124211505,
      0.053660852501594435,
      -0.025968730275179375,
      0.09198443845480783,
      0.07133242474523319,
      0.19089542107922025,
      -0.16677553650147872,
      0.004926168839278195,
      -0.009362126244332324
    ],
    [
      0.16274643194022348,
      0.06321691415986325,
      -0.003247837966306535,
      0.3694389079402635,
      0.12635098230504838,
      0.14909499240484467,
      -0.017265426104053926,
      0.03084466318127434,
      0.017668000316948058,
      0.43534854948132434,
      0.007885039651772653,
      0.13080133017619988,
      -0.4109457201440426,
      -0.006923246734005885,
      -0.0032292694561364592,
      0.21953582885328435,
      0.07909985684007734,
      -0.0005307189828580878,
      0.03775480375535906,
      0.024947515276340537,
      0.43297373129366457,
      -0.13820506731406335,
      -0.13622546101822305,
      0.03413473734569516,
      0.10398292165766489,
      0.01639834391033483,
      -0.00935969389374175,
      0.05785873873980029,
      0.09780222725939418,
      -0.023441455075309994,
      0.07544728347905205,
      0.10224545859331911,
      0.26743980905484765,
      0.25951638688660006,
      -0.3578001987452748,
      -0.004553706745062633,
      0.009153792106175783
    ],
    [
      0.19005771133973948,
      0.050090578301026284,
      0.017315178264149036,
      0.05880529533272545,
      0.13475454682666432,
      0.17803653855266147,
      0.04819606969713257,
      0.0063148598186160265,
      -0.004393982684630123,
      0.3788359118935134,
      -0.0020425634327745357,
      0.1920218104905857,
      -0.33069028598369726,
      0.050926993324404535,
      0.1116061357659069,
      0.16290828342958324,
      0.07647491115811528,
      -0.0014012383200525877,
      -0.01684453222272124,
      -0.060744007327286714,
      0.33061944501585805,
      -0.06996353390778387,
      -0.06845785803948494,
      0.06722366244024681,
      0.15017311094872113,
      -0.015622254410228065,
      -0.0087075385101495,
      0.07663576343248989,
      0.10997405745085775,
      0.00038143768448175436,
      0.07182508522627017,
      0.10668312446886784,
      0.10987744686245715,
      0.3527312343224885,
      -0.2835920153062565,
      -0.00932272561167331,
      0.001051892868372293
    ],
    [
      0.19339287910659028,
      0.15927625670962448,
      0.019118891444624957,
      0.18906763629622644,
      0.18596770471479407,
      0.19343758627627902,
      0.03847700948212986,
      0.009660021485592337,
      0.011734996774803868,
      0.3352745461963231,
      -0.03611829649250869,
      0.35108848697629463,
      -0.3800825343702569,
      0.12049826228562316,
      0.2689684665470855,
      0.23248817830900056,
      0.07875376519152948,
      -0.0075767052501811705,
      0.008850731407749505,
      -0.1569820882636277,
      0.34703486178321663,
      -0.1286418343305417,
      -0.017956861989551626,
      -0.010260339991181016,
      0.20074770355905203,
      -0.00977046125922747,
      -0.06687622184449142,
      0.14309128297292667,
      0.12297806639488859,
      -0.06341590745391405,
      0.13332931849444668,
      0.131261425811865,
      0.03031810762484738,
      0.4706418564243295,
      -0.30313928504482607,
      0.003066531041848017,
      0.009819113021645417
    ],
    [
      0.14937932245912197,
      0.09217857998750204,
      0.01892370096802426,
      0.17139564802458815,
      0.24120759896695126,
      0.15258330447122084,
      0.009653259547729342,
      -0.021611910099506998,
      -0.024814904669248548,
      0.3063145992809627,
      0.01050926920998866,
      0.17467792157427603,
      -0.203333327072091,
      -0.020136787223453644,
      0.14153392735555156,
      0.22121635538747947,
      0.044257821623789224,
      0.008914041669121313,
      0.04040265179852403,
      -0.01799248020387322,
      0.3263681170348757,
      -0.09634579941207355,
      -0.07856360447057029,
      0.003428280035141878,
      0.14445448238581093,
      -0.008544896470797255,
      -0.016131216990631775,
      0.06215000430833771,
      0.11040404633189543,
      -0.027892087643038504,
      0.05566213252660701,
      0.1199016053364802,
      0.03894093575860732,
      0.36313864401165297,
      -0.2607319336145966,
      0.005905623360816422,
      0.0009608966832618457
    ],
    [
      0.17180217289049488,
      -0.0053487067296802155,
      0.013844604584345851,
      0.16501756835540526,
      0.24792966381343717,
      0.1703695361950589,
      -0.02741939319787816,
      -0.041264892036854295,
      -0.05618449165209463,
      0.3702487486941813,
      -0.025609020509690456,
      0.1753706493919479,
      -0.3324064473362162,
      -0.0024977080102460223,
      0.3582273297512214,
      0.21580193368032505,
      0.026428961843145173,
      0.009932407111260299,
      -0.014612802579936673,
      -0.03665006460539463,
      0.41213602835907226,
      -0.07137224602447843,
      -0.17147552170866054,
      0.018505488279605208,
      0.16870396220234246,
      0.0062423801873501645,
      0.01575120126459016,
      0.016690386765208107,
      0.15309440060631946,
      0.010877739176508777,
      -0.0006696846723044936,
      0.15490723301686993,
      0.2316702448827087,
      0.24466815123515218,
      -0.2930117984706181,
      0.0024438919018548062,
      -0.002583127507977348
    ],
    [
      -0.025100189958182584,
      -0.049008763353885695,
      0.0015221203518055299,
      0.0679263115733893,
      0.06870679405270874,
      -0.03015885099143406,
      -0.017612460229669804,
      -0.001593347208726348,
      -0.007415406374457111,
      0.34032411882472224,
      -0.2382252733453642,
      0.18720425537265203,
      -0.38213149444799743,
      -0.10644385887042214,
      0.09142170439322606,
      0.0908251260645399,
      -0.1649596183760849,
      0.008084416942642671,
      0.009142011663741964,
      -0.13065632961448814,
      0.32430815103790106,
      -0.20070393909072953,
      -0.1554301269979021,
      -0.14724154177556542,
      0.1270688091856314,
      0.006583754043721439,
      -0.239924448707561,
      0.06458043812497886,
      0.1361715194413555,
      -0.2332259092134262,
      0.06788922805137294,
      0.13063774184841606,
      0.29368154114209344,
      0.25428375412970383,
      -0.5657700142759108,
      -0.009178019332310184,
      0.001246865368259695
    ],
    [
      0.17293934879274736,
      0.062483847480060584,
      0.023419548869274266,
      0.184521748033123,
      0.32455749247017207,
      0.16762303111295485,
      -0.003795025077562015,
      -0.06534683389738091,
      -0.05970846311708177,
      0.46570113423563336,
      -0.013260741018925014,
      0.2555722365655102,
      -0.7189151866454896,
      0.04758936737118276,
      0.3807350777335593,
      0.20701074201061775,
      0.04530269119189742,
      -0.005294981532272867,
      0.05116792255773475,
      -0.06481873326393267,
      0.541380327807584,
      -0.16641607550098256,
      -0.2149525901790374,
      -0.11181528278823802,
      0.25073270164338557,
      0.012195324009473455,
      -0.05261546783404078,
      0.08880173259400638,
      0.12248068944888123,
      -0.053634394895841514,
      0.09269113036803649,
      0.1139222850427256,
      0.023851480551970734,
      0.3795971433085994,
      -0.22520653928588066,
      -0.008914701379528808,
      7.848127109817866e-05
    ],
    [
      0.1833430433565569,
      0.17878764308701423,
      0.016302842148098275,
      0.28770134269725806,
      0.16617366839165776,
      0.1927502255037312,
      -0.05792070802102721,
      -0.09273800276623012,
      -0.08597337793418738,
      0.3888210722979179,
      -0.0057512769891160925,
      0.25515540612246546,
      -0.3900589669131247,
      -0.01343294384069519,
      0.1310528844962911,
      0.2791615254550713,
      0.09477352538005396,
      0.005123595334920402,
      0.052939077729265524,
      -0.03386337166704843,
      0.4489913908104032,
      -0.05451841901398305,
      -0.21400335020380784,
      0.014476866310848362,
      0.21359011404736838,
      -0.03967220786144118,
      -0.016588776439070394,
      0.0884132903410491,
      0.1057203199323288,
      -0.0211094685814562,
      0.0819350786350763,
      0.1025633565339176,
      0.22125885103297036,
      0.3110754297483296,
      -0.326318553629929,
      -0.00662515911577282,
      0.005697386304190881
    ],
    [
      0.07023533641571109,
      0.004277860154456081,
      0.02604430954211302,
      0.08155784215120651,
      0.12069952871810859,
      0.08269437917918115,
      -0.02993791766051441,
      -0.05289909009879494,
      -0.07281878466952788,
      0.3387132756854,
      -0.01597124735504055,
      0.11024213909542714,
      -0.4598983898768706,
      -0.13937783424897024,
      0.21716099297803618,
      0.26454348173668446,
      0.08937736565801944,
      0.005292783838716973,
      0.008895278669295625,
      -0.1979350419667152,
      0.3666331110388865,
      -0.07277414500716058,
      -0.21369099418916498,
      -0.04307552494303098,
      0.11487714930819096,
      0.013671048861685284,
      0.02615711420422589,
      0.06898602311800771,
      -0.01596502148636192,
      0.014475527077175235,
      0.056387915560400195,
      -0.01923070267000815,
      0.050966289539171324,
      0.3773997983652737,
      -0.34921306728547596,
      0.007910849012103134,
      -0.007359534131229743
    ],
    [
      0.17333268485805198,
      0.17809258128562375,
      -0.001064134087682108,
      0.1679164480980228,
      0.23373115577278386,
      0.1723148434131943,
      -0.023592665852433362,
      -0.036864547142706657,
      -0.030452677874026276,
      0.23660548961327948,
      0.055509775347057706,
      0.21470112569053768,
      -0.1299570495476249,
      -0.12492642551012034,
      0.012835160074491718,
      0.2515333203021327,
      0.14138723304226433,
      -0.008083906611253524,
      0.007310304744098103,
      0.0021510807222278935,
      0.5046015880976584,
      -0.20228442066962204,
      -0.1245626980742807,
      0.04938121526844015,
      0.1225351448049293,
      0.001246623529892646,
      0.011104906017845768,
      0.12771377909407308,
      0.038762627790642934,
      0.02284139434863587,
      0.12947214456340653,
      0.034857483391717875,
      0.04597430973055053,
      0.3531528710987406,
      -0.22075903173291814,
      -0.00188022551154228,
      -0.005246623879787831
    ],
    [
      0.11560683340419617,
      0.02706777830987879,
      0.010261639806323988,
      0.35648970569768856,
      0.40569679540182835,
      0.1227985354614993,
      -0.0760320071194572,
      -0.002286456297660097,
      -0.02909552115445205,
      0.1365071290494238,
      0.03457202125631911,
      0.49368158408272744,
      -0.08525818482245402,
      0.20862093695019474,
      -0.019027572072737513,
      0.33764939868244714,
      0.0806792249132457,
      0.00430797227299308,
      -0.059771214069246646,
      -0.002158490148750819,
      0.24870235055806833,
      -0.046983984500111736,
      -0.06823495740186405,
      0.09298158604940293,
      0.045805467993295615,
      -0.028673457340931845,
      -0.017870102953726368,
      0.05077301397319464,
      0.07366894494073803,
      -0.00752295547688075,
      0.06389884721924452,
      0.08386529104071444,
      1.5237723847780154,
      -0.45546873365740986,
      -0.9432352074802572,
      -0.0012789455524483788,
      0.005769000339102029
    ]
  ],
  "bias": [
    0.17552899462756177,
    0.13759359520496953,
    0.13221458975489184,
    0.155954568511528,
    0.15976408737182174,
    0.0533031244041174,
    0.1146599756837771,
    0.14137287209347452,
    0.16737760327000925,
    0.17124563046394733,
    0.1461873028943171,
    0.16945911090610344,
    0.18068835652769938,
    0.1351690169305045,
    0.16076267133970756,
    0.17350524830262928,
    0.2088726215513827,
    0.12438596261859691,
    0.11030445868977959,
    0.09643957929554488,
    0.15945783466559565,
    0.187718141705006,
    0.19687771202513102,
    0.15733267404550952,
    0.18053675131993002,
    -0.02518945121757238,
    0.16779012369600693,
    0.1857857907628093,
    0.07793376239886218,
    0.1787874920482737,
    0.12443924980275975
  ],
  "config": {
    "episodes": 120,
    "max_steps": 50,
    "seed": 7,
    "learning_rate": 0.03,
    "gamma": 0.95,
    "gradient_clip": 5.0,
    "epsilon_start": 1.0,
    "epsilon_end": 0.05,
    "epsilon_decay_episodes": 180,
    "expert_mix_start": 0.75,
    "expert_mix_end": 0.0,
    "expert_decay_episodes": 140,
    "eval_every": 30,
    "eval_episodes": 10,
    "n_features": 37,
    "n_actions": 31,
    "feature_names": [
      "bias",
      "battery_pct",
      "battery_drain_rate",
      "solar_a_output",
      "solar_b_output",
      "bus_voltage",
      "star_tracker_error",
      "gyro_error",
      "sun_sensor_error",
      "fuel_units",
      "signal_strength",
      "battery_temp",
      "episode_progress",
      "science_a_online",
      "science_b_online",
      "heaters_online",
      "transponder_online",
      "last_action_error",
      "last_action_refused",
      "last_action_diag",
      "attitude_mode_nominal",
      "attitude_mode_thruster",
      "attitude_mode_tumbling",
      "rw_status_nominal",
      "rw_status_degraded",
      "rw_status_failed",
      "transponder_status_nominal",
      "transponder_status_degraded",
      "transponder_status_offline",
      "link_bandwidth_high",
      "link_bandwidth_low",
      "link_bandwidth_none",
      "mission_status_nominal",
      "mission_status_degraded",
      "mission_status_critical",
      "mission_status_recovered",
      "mission_status_lost"
    ],
    "action_space": [
      {
        "index": 0,
        "command": "shed_load",
        "target": "science_a",
        "label": "shed_load:science_a"
      },
      {
        "index": 1,
        "command": "shed_load",
        "target": "science_b",
        "label": "shed_load:science_b"
      },
      {
        "index": 2,
        "command": "shed_load",
        "target": "heaters",
        "label": "shed_load:heaters"
      },
      {
        "index": 3,
        "command": "shed_load",
        "target": "transponder",
        "label": "shed_load:transponder"
      },
      {
        "index": 4,
        "command": "restore_load",
        "target": "science_a",
        "label": "restore_load:science_a"
      },
      {
        "index": 5,
        "command": "restore_load",
        "target": "science_b",
        "label": "restore_load:science_b"
      },
      {
        "index": 6,
        "command": "restore_load",
        "target": "heaters",
        "label": "restore_load:heaters"
      },
      {
        "index": 7,
        "command": "restore_load",
        "target": "transponder",
        "label": "restore_load:transponder"
      },
      {
        "index": 8,
        "command": "switch_to_backup_battery",
        "target": null,
        "label": "switch_to_backup_battery"
      },
      {
        "index": 9,
        "command": "reset_power_controller",
        "target": null,
        "label": "reset_power_controller"
      },
      {
        "index": 10,
        "command": "reconfigure_power",
        "target": "solar_a",
        "label": "reconfigure_power:solar_a"
      },
      {
        "index": 11,
        "command": "reconfigure_power",
        "target": "solar_b",
        "label": "reconfigure_power:solar_b"
      },
      {
        "index": 12,
        "command": "stabilize_attitude",
        "target": null,
        "label": "stabilize_attitude"
      },
      {
        "index": 13,
        "command": "switch_to_thruster_control",
        "target": null,
        "label": "switch_to_thruster_control"
      },
      {
        "index": 14,
        "command": "desaturate_wheels",
        "target": null,
        "label": "desaturate_wheels"
      },
      {
        "index": 15,
        "command": "recalibrate_star_tracker",
        "target": null,
        "label": "recalibrate_star_tracker"
      },
      {
        "index": 16,
        "command": "cross_validate_attitude",
        "target": null,
        "label": "cross_validate_attitude"
      },
      {
        "index": 17,
        "command": "switch_attitude_reference",
        "target": "star_tracker",
        "label": "switch_attitude_reference:star_tracker"
      },
      {
        "index": 18,
        "command": "switch_attitude_reference",
        "target": "gyro",
        "label": "switch_attitude_reference:gyro"
      },
      {
        "index": 19,
        "command": "switch_attitude_reference",
        "target": "sun_sensor",
        "label": "switch_attitude_reference:sun_sensor"
      },
      {
        "index": 20,
        "command": "recalibrate_imu",
        "target": null,
        "label": "recalibrate_imu"
      },
      {
        "index": 21,
        "command": "query_power_level",
        "target": "battery",
        "label": "query_power_level:battery"
      },
      {
        "index": 22,
        "command": "query_power_level",
        "target": "solar_a",
        "label": "query_power_level:solar_a"
      },
      {
        "index": 23,
        "command": "query_power_level",
        "target": "solar_b",
        "label": "query_power_level:solar_b"
      },
      {
        "index": 24,
        "command": "query_attitude",
        "target": null,
        "label": "query_attitude"
      },
      {
        "index": 25,
        "command": "query_thermal",
        "target": null,
        "label": "query_thermal"
      },
      {
        "index": 26,
        "command": "diagnostic_scan",
        "target": "power",
        "label": "diagnostic_scan:power"
      },
      {
        "index": 27,
        "command": "diagnostic_scan",
        "target": "attitude",
        "label": "diagnostic_scan:attitude"
      },
      {
        "index": 28,
        "command": "diagnostic_scan",
        "target": "comms",
        "label": "diagnostic_scan:comms"
      },
      {
        "index": 29,
        "command": "safe_mode",
        "target": null,
        "label": "safe_mode"
      },
      {
        "index": 30,
        "command": "resume_nominal",
        "target": null,
        "label": "resume_nominal"
      }
    ]
  }
}