{
  "model_type": "linear_q",
  "n_features": 37,
  "n_actions": 31,
  "learning_rate": 0.03,
  "gamma": 0.95,
  "gradient_clip": 5.0,
  "feature_names": [
    "bias",
    "battery_pct",
    "battery_drain_rate",
    "solar_a_output",
    "solar_b_output",
    "bus_voltage",
    "star_tracker_error",
    "gyro_error",
    "sun_sensor_error",
    "fuel_units",
    "signal_strength",
    "battery_temp",
    "episode_progress",
    "science_a_online",
    "science_b_online",
    "heaters_online",
    "transponder_online",
    "last_action_error",
    "last_action_refused",
    "last_action_diag",
    "attitude_mode_nominal",
    "attitude_mode_thruster",
    "attitude_mode_tumbling",
    "rw_status_nominal",
    "rw_status_degraded",
    "rw_status_failed",
    "transponder_status_nominal",
    "transponder_status_degraded",
    "transponder_status_offline",
    "link_bandwidth_high",
    "link_bandwidth_low",
    "link_bandwidth_none",
    "mission_status_nominal",
    "mission_status_degraded",
    "mission_status_critical",
    "mission_status_recovered",
    "mission_status_lost"
  ],
  "action_specs": [
    {
      "index": 0,
      "command": "shed_load",
      "target": "science_a",
      "label": "shed_load:science_a"
    },
    {
      "index": 1,
      "command": "shed_load",
      "target": "science_b",
      "label": "shed_load:science_b"
    },
    {
      "index": 2,
      "command": "shed_load",
      "target": "heaters",
      "label": "shed_load:heaters"
    },
    {
      "index": 3,
      "command": "shed_load",
      "target": "transponder",
      "label": "shed_load:transponder"
    },
    {
      "index": 4,
      "command": "restore_load",
      "target": "science_a",
      "label": "restore_load:science_a"
    },
    {
      "index": 5,
      "command": "restore_load",
      "target": "science_b",
      "label": "restore_load:science_b"
    },
    {
      "index": 6,
      "command": "restore_load",
      "target": "heaters",
      "label": "restore_load:heaters"
    },
    {
      "index": 7,
      "command": "restore_load",
      "target": "transponder",
      "label": "restore_load:transponder"
    },
    {
      "index": 8,
      "command": "switch_to_backup_battery",
      "target": null,
      "label": "switch_to_backup_battery"
    },
    {
      "index": 9,
      "command": "reset_power_controller",
      "target": null,
      "label": "reset_power_controller"
    },
    {
      "index": 10,
      "command": "reconfigure_power",
      "target": "solar_a",
      "label": "reconfigure_power:solar_a"
    },
    {
      "index": 11,
      "command": "reconfigure_power",
      "target": "solar_b",
      "label": "reconfigure_power:solar_b"
    },
    {
      "index": 12,
      "command": "stabilize_attitude",
      "target": null,
      "label": "stabilize_attitude"
    },
    {
      "index": 13,
      "command": "switch_to_thruster_control",
      "target": null,
      "label": "switch_to_thruster_control"
    },
    {
      "index": 14,
      "command": "desaturate_wheels",
      "target": null,
      "label": "desaturate_wheels"
    },
    {
      "index": 15,
      "command": "recalibrate_star_tracker",
      "target": null,
      "label": "recalibrate_star_tracker"
    },
    {
      "index": 16,
      "command": "cross_validate_attitude",
      "target": null,
      "label": "cross_validate_attitude"
    },
    {
      "index": 17,
      "command": "switch_attitude_reference",
      "target": "star_tracker",
      "label": "switch_attitude_reference:star_tracker"
    },
    {
      "index": 18,
      "command": "switch_attitude_reference",
      "target": "gyro",
      "label": "switch_attitude_reference:gyro"
    },
    {
      "index": 19,
      "command": "switch_attitude_reference",
      "target": "sun_sensor",
      "label": "switch_attitude_reference:sun_sensor"
    },
    {
      "index": 20,
      "command": "recalibrate_imu",
      "target": null,
      "label": "recalibrate_imu"
    },
    {
      "index": 21,
      "command": "query_power_level",
      "target": "battery",
      "label": "query_power_level:battery"
    },
    {
      "index": 22,
      "command": "query_power_level",
      "target": "solar_a",
      "label": "query_power_level:solar_a"
    },
    {
      "index": 23,
      "command": "query_power_level",
      "target": "solar_b",
      "label": "query_power_level:solar_b"
    },
    {
      "index": 24,
      "command": "query_attitude",
      "target": null,
      "label": "query_attitude"
    },
    {
      "index": 25,
      "command": "query_thermal",
      "target": null,
      "label": "query_thermal"
    },
    {
      "index": 26,
      "command": "diagnostic_scan",
      "target": "power",
      "label": "diagnostic_scan:power"
    },
    {
      "index": 27,
      "command": "diagnostic_scan",
      "target": "attitude",
      "label": "diagnostic_scan:attitude"
    },
    {
      "index": 28,
      "command": "diagnostic_scan",
      "target": "comms",
      "label": "diagnostic_scan:comms"
    },
    {
      "index": 29,
      "command": "safe_mode",
      "target": null,
      "label": "safe_mode"
    },
    {
      "index": 30,
      "command": "resume_nominal",
      "target": null,
      "label": "resume_nominal"
    }
  ],
  "weights": [
    [
      0.00237770600462856,
      0.0038629328563479694,
      0.004648429349545855,
      0.0070840698828073265,
      0.02703404613971701,
      0.0028506873503127885,
      -0.015658221666386127,
      -0.010218220674293052,
      -0.01928659493012387,
      0.035435113434262554,
      -0.0014667979138324743,
      8.430088350442743e-05,
      -0.023768228904078467,
      0.053210525266814364,
      0.011403174781182433,
      0.01052709016361092,
      -0.004487486910086361,
      0.008954178849140114,
      0.0015420589723499738,
      -0.03543197184804626,
      0.04723625080147719,
      -0.015176524122757457,
      -0.018532551065567292,
      0.016625508889382086,
      -0.005271507432603654,
      -0.024419818593463476,
      0.014835405370381423,
      -0.019379393064140254,
      0.0065517296646422155,
      0.02029777216159206,
      -0.022923650868017204,
      0.010385152920678091,
      0.0009548893141911562,
      0.03963441380900351,
      -0.051285560202247074,
      -0.0058808257436134695,
      0.003607999463635719
    ],
    [
      -0.027335786173503702,
      0.07419202410219979,
      0.002238816994703125,
      0.06592427333843823,
      0.06837906944844249,
      -0.020115811532297554,
      -0.050972856859101155,
      -0.06708396806359045,
      -0.06034293117738888,
      0.10599942911984392,
      0.02948020032451243,
      0.06613799866360336,
      -0.09916168294068586,
      0.04104819013232481,
      0.03895254582207454,
      -0.02995665904373649,
      0.035230923834085444,
      -0.006960309306789905,
      -0.00022073799048388798,
      0.04161175872863347,
      0.1090639588575167,
      0.02370414331053569,
      -0.14853948119445232,
      -0.02426525708960149,
      0.011708233121016534,
      -0.005640194499253918,
      0.026178103119250087,
      0.0073953037512805835,
      -0.05685163090364395,
      0.03109006118740055,
      0.01469102156778949,
      -0.056493770781279345,
      0.0032830441094934895,
      0.1296654218883016,
      -0.1603098251971605,
      0.0029425770905533756,
      0.009861918789332682
    ],
    [
      0.022495095733791243,
      0.019389248508335864,
      -0.0010822915613597122,
      0.016650224519440905,
      0.02274983000979814,
      0.014903607209266801,
      -0.014924877402626874,
      -0.016570229524949638,
      -0.018020273266031783,
      0.02848468176942931,
      0.007404537017013425,
      0.01144345198603052,
      -0.006650282079987153,
      0.038002924641698146,
      0.022641686591899145,
      0.023030510658953014,
      0.011323039344861969,
      0.00766767652883025,
      0.016767211931692692,
      0.01921544185335397,
      0.011860956009348906,
      0.014101925812375887,
      -0.018856506878983437,
      0.005441637984794738,
      0.012715916791220961,
      0.007755943964647589,
      0.009508910742426692,
      -0.01101117767424735,
      0.0003890805132329468,
      0.015683810779446417,
      -0.003867844935992952,
      0.0009772912255864828,
      -0.009918127932298721,
      0.04235795811321221,
      -0.030537356631214204,
      0.0013268244741278384,
      0.009061958510501905
    ],
    [
      0.011290370084801847,
      -0.004347156583818287,
      0.0029055107085068635,
      -0.014352214827427195,
      -0.026951120767832206,
      0.01403661386091577,
      0.039011398485642085,
      0.02476888995816293,
      0.023319829732250743,
      0.0515590945739451,
      0.08272545498427634,
      -0.0016769224002228748,
      -0.11123808168401071,
      0.10186312355792988,
      0.06910659456567164,
      0.012847632613553699,
      0.12554640722451432,
      -0.003198926955353132,
      0.005567127169504051,
      -0.0633788414237803,
      0.07975182522522374,
      -0.08721674227710098,
      -0.0027278015593085805,
      0.009980286113632351,
      -0.010786211944492372,
      0.008564467809511162,
      0.0683233260859417,
      0.05199318222089004,
      -0.12787205560591605,
      0.07263558516988952,
      0.0494048717049924,
      -0.11784110799729777,
      0.029487594077754233,
      0.0054476059735897725,
      -0.018596166363643377,
      -0.008282306768876688,
      -0.007956247665036631
    ],
    [
      0.0346229858817504,
      0.04305703299549099,
      0.007313426808266115,
      0.02368249661329824,
      0.027147914810360364,
      0.04678998057438439,
      0.004863842134225442,
      -0.008793598010382278,
      -0.000557021632099927,
      0.014540366445683,
      0.02152671943875014,
      0.04084312123951525,
      0.023073499966775816,
      -0.010953780621423593,
      -0.0347888940774376,
      0.02285273447641358,
      0.014946348930616225,
      0.005438758168040625,
      0.01349037877291537,
      0.00565200695445363,
      0.011905663133604794,
      0.026381542260033683,
      -0.003232577978257273,
      0.060540512436015506,
      0.0034835331178655693,
      -0.0033811077545263454,
      0.027972167106436963,
      0.004797460407514283,
      0.010699550677592564,
      0.021958282724799612,
      -0.0028887491329008365,
      0.006744363891788171,
      -0.009441258491558711,
      0.05787492686415317,
      -0.029332799700927083,
      0.003850438834002467,
      0.009130301526826758
    ],
    [
      0.025121394911138545,
      0.03576599841528245,
      0.010839720048749748,
      0.029079816065486805,
      0.023829158958517255,
      0.020578675372344507,
      -0.007219063457017564,
      -0.007334690376263561,
      -0.0069624339255301634,
      0.018662565159740394,
      0.03883240977560035,
      0.027930847895051444,
      0.006521831953332619,
      0.0017003106857611376,
      -0.007768002222967609,
      0.022578232122006752,
      0.03268767802054256,
      0.008195542751034459,
      0.012900400780226466,
      0.02093963857448293,
      0.014151144120197927,
      0.00737655227008442,
      0.003562942844558735,
      0.028890914584440895,
      0.016107760117107905,
      -0.006721872190875537,
      0.027392734917833637,
      -0.0019722636426459713,
      0.005636816468657259,
      0.033971938329128974,
      -0.0065999268005620905,
      -0.01075835631468331,
      -0.006976985992370204,
      0.0575467993985898,
      -0.017142876487477008,
      -0.007076513825122517,
      0.006530209570507742
    ],
    [
      0.027552121152614024,
      0.017535074848898446,
      -0.002923225713657,
      -0.001000174413913006,
      0.0200282968732661,
      0.00808784039393366,
      0.007584168880529733,
      -0.00039870796551891947,
      -0.003330450063323806,
      0.05077010962504664,
      0.02729335620817361,
      0.015232217032722893,
      -0.011784869894747729,
      0.029248306549570516,
      0.003119056617446149,
      -0.049109446327505746,
      0.02232597965952911,
      0.0017287433633192337,
      -0.006400507850698856,
      -0.021727197549643647,
      0.03145252066125111,
      0.009500020072240026,
      -0.025109043314371755,
      0.0042248067497237755,
      0.01445693091310716,
      0.008180395281954935,
      0.02592775722254373,
      0.008354421686853285,
      -0.009536210702284383,
      0.028151691057081096,
      0.0004701317117433261,
      -0.019195092166580614,
      -0.001197501752301133,
      0.03518231758818938,
      -0.03349550792255916,
      0.005983409009844435,
      -0.006553065755731022
    ],
    [
      0.022417713557933913,
      0.059886680868793625,
      0.008496843285991816,
      0.10206366614563957,
      0.10621041682726415,
      0.023916401031223784,
      -0.02260402973962416,
      -0.06407348394417652,
      -0.05508319011525589,
      0.126513529185595,
      -0.013163611036781627,
      0.022306853064663457,
      -0.07558466291362681,
      -0.0696319448792956,
      -0.05527193099854371,
      0.02491888435133177,
      1.31345814722004e-05,
      0.0022505576868892072,
      -0.00012086958290832177,
      -0.03335089067585978,
      0.10826947077475581,
      0.06757992003020175,
      -0.14933429124841657,
      0.023495401918902502,
      0.016314586889284683,
      -0.004487027344474973,
      0.008678876345535292,
      0.008843611766071515,
      0.01699153408112517,
      0.0023384428398777195,
      0.008865340680269675,
      0.02859968386663548,
      -0.007257311282062971,
      0.1633560498749252,
      -0.14913339411304594,
      -0.008549078006870235,
      -0.005187224830934602
    ],
    [
      0.02415514566836207,
      0.017589062005956866,
      0.005735236545913415,
      0.023058750446948037,
      0.03244023630227927,
      0.036461935989832744,
      0.007273087754698339,
      -0.006111335639196621,
      0.008875593494464392,
      0.03368057648137293,
      0.025737437371121837,
      0.037894759078107354,
      -0.0028624006122602245,
      0.04406682151833943,
      0.036118327505144814,
      0.05866156500316649,
      0.02955222033486191,
      -0.0013695636400472225,
      0.00031210115608718177,
      0.006575239690371539,
      0.016890558035299444,
      0.006087576983041635,
      0.004443016702823715,
      0.03746289408068731,
      0.001088102145871378,
      -0.01557844034438164,
      0.01936509995648966,
      0.003949396580135232,
      -0.0011516273304984712,
      0.029248706029218016,
      -0.0013947453508895424,
      0.006071496074346244,
      0.005767261121951616,
      0.057555160162829154,
      -0.023332918775522456,
      -0.004688714553129605,
      -0.009208236201718647
    ],
    [
      -0.01525815009192629,
      -0.036013648892582954,
      -0.005563737756682145,
      0.02636777097404306,
      0.07425561412450238,
      -0.01492625661604406,
      -0.05915568600534091,
      -0.061260512799100365,
      -0.045944436130982313,
      0.13595190262015874,
      -0.024291884191105072,
      -0.027167699834725688,
      -0.13861130734889573,
      0.0849231452269082,
      -0.08863180664186342,
      -0.10299834659794692,
      -0.037093165650901046,
      0.0026887901259311908,
      0.006032571831427797,
      -0.18533191522410203,
      0.15623685082271765,
      -0.016087997573404116,
      -0.15527442913658854,
      -0.10987300844271868,
      0.0835233057061176,
      0.0024313923776288692,
      -0.09497394075371088,
      0.05300436153698021,
      0.017606557136326723,
      -0.10296902590459198,
      0.0524158899926582,
      0.017211090440005822,
      -0.006771018168047774,
      0.15048045238019905,
      -0.18627559175392253,
      -0.0037601519184304634,
      -0.0038998920424154647
    ],
    [
      -0.08656276194906899,
      -0.07260714713658639,
      0.009642878416535099,
      -0.011247495673064337,
      0.04575243024143716,
      -0.10153273412517859,
      -0.11218608820595932,
      -0.1184432113856761,
      -0.10404771207827009,
      0.07778867670870655,
      -0.0009152752908991903,
      -0.05165073604640553,
      -0.12980146374411955,
      -0.0066030883107060425,
      0.0625704879684458,
      0.06273899431873547,
      -0.11969317831498413,
      0.006692278666604453,
      0.00324225853122642,
      -0.1901129477763331,
      0.05820390581600085,
      0.028862439108583837,
      -0.16856133394316564,
      -0.07978846915000017,
      0.004200541509000375,
      -0.0026650215321265772,
      0.028434710913924566,
      -0.15298292292081953,
      0.018928253470864957,
      0.022937128362805394,
      -0.15851951021224406,
      0.03265826669875478,
      -0.004888122464606062,
      0.07488360631366676,
      -0.18168170550302085,
      0.006825379637015129,
      0.007410756424954966
    ],
    [
      -0.020008573078303192,
      -0.04711477199547012,
      -0.005088070259035235,
      -0.03764789484727024,
      0.07909508354472974,
      -0.03160654358645221,
      -0.0035292426625702774,
      -0.006773292794727611,
      0.006789995840007182,
      0.1032938300552048,
      0.05397071075614088,
      -0.017034123324358934,
      -0.08289100852905995,
      -0.08309670244263138,
      0.09573955766332834,
      -0.035193511787115994,
      0.06587512711633574,
      -0.0005071274520562791,
      0.03695614262966998,
      0.06077736621415958,
      0.027716151547020326,
      -0.03720197771915902,
      -0.028456515727939787,
      0.07877192315994778,
      0.005696211030664415,
      -0.12726894270986783,
      0.03631990187889898,
      0.01845746724907704,
      -0.09700584268874474,
      0.047581684623126494,
      0.022956367010452467,
      -0.086651221416841,
      0.0031508734662534545,
      0.008485391021800744,
      -0.020003147386283462,
      -0.0022096705787910008,
      -0.0034773049174730095
    ],
    [
      -0.016551986408906812,
      -0.042972628447068235,
      -0.011401265941305931,
      0.1132253462273271,
      -0.041419763569441284,
      -0.020196044649011768,
      0.0328101539102516,
      0.010680648724963611,
      0.010643220923999852,
      0.10235831295719078,
      0.04301084766533764,
      -0.016490465568603715,
      -0.20937078247698226,
      -0.0025695482785431413,
      0.2044336156611915,
      0.004845640805546857,
      0.07829314493658492,
      0.007856594728110155,
      0.061298537168232484,
      0.025744036117131847,
      0.12762935048780782,
      -0.15285738826547274,
      -0.023134641437801282,
      -0.0007237082789344276,
      0.03859656737717555,
      -0.06809052426259077,
      0.038977725507575015,
      0.04136007619322718,
      -0.10033395353219712,
      0.04142046409927275,
      0.038590620319998895,
      -0.1127921961682959,
      0.030213387375521802,
      -0.05605289870937427,
      0.010571622716599987,
      0.0007039962845954185,
      0.0031859897860869978
    ],
    [
      0.023778701243377866,
      0.03619744613507026,
      -0.004533607200434117,
      0.00974437432198399,
      0.028860038782301145,
      0.03686844338908718,
      -0.000788300474489508,
      0.0063060342618867,
      0.011055962577205435,
      0.043558203979139364,
      0.034004644050127056,
      0.02058197413494145,
      0.005932043334660166,
      0.03778022171306192,
      0.021795087263757208,
      0.029192618823381956,
      0.03482176998971193,
      -0.007051498542461851,
      -0.0049211943668820935,
      0.01636083316703603,
      0.04817544499138124,
      -0.012080024406555843,
      -0.015944765482820953,
      0.02676465037318511,
      -0.0006192412208118553,
      -0.003659007863275904,
      0.04202680063455966,
      0.00860338955246071,
      -0.014997509911833708,
      0.03851381106403885,
      0.00438249348369151,
      -0.011487856394483326,
      -0.007629942745968641,
      0.054202679524030455,
      -0.01988672628440015,
      0.009562514735140538,
      0.008725086819074327
    ],
    [
      0.02997055201265291,
      0.04451625456845921,
      0.0064126244089324795,
      0.04201351249250206,
      0.04625104765387153,
      0.03493813223199314,
      -0.007085899442731278,
      0.0038171682475546913,
      -0.010880401339664548,
      0.06148126716084661,
      0.03346745678623918,
      0.02479381335695758,
      0.006637931536353434,
      -0.008178013094783087,
      0.0031590842451559896,
      0.0206284224854767,
      0.05353669919203887,
      0.0040667407758814885,
      -0.005372327938990602,
      0.01088574019276106,
      0.046497950393272064,
      0.016178457896123717,
      -0.04276463476932523,
      0.038959519703698674,
      -0.0009847939900429065,
      -0.003466113792165583,
      0.03861360040489558,
      -0.0031207970714410924,
      -0.009857432195922958,
      0.05260407667270175,
      -0.009965172361649935,
      -0.0011643122799960123,
      0.006782215893009239,
      0.06279311802363723,
      -0.02224385097774618,
      0.004260471315938475,
      0.008031331261978717
    ],
    [
      0.01579412481710615,
      0.0394742143993747,
      -0.00181564817293599,
      0.04070807666686328,
      0.01666628418999906,
      0.017761862883583262,
      0.018582950901431368,
      -0.0022024998262468645,
      -0.005625595273313376,
      0.003960137662806524,
      0.05487465127533402,
      0.027724083960528896,
      0.029769826107552053,
      -0.001282737423101643,
      -0.040290276889334814,
      0.045447685143586034,
      0.046586135105060086,
      -0.002533014299699268,
      0.00912330529507214,
      0.0036893569051243947,
      -0.013786110209222137,
      0.06432883519356732,
      -0.013419620170764758,
      0.047835363858533625,
      -0.013371434801526713,
      -0.0002764628498642042,
      0.04242978407684998,
      0.0059959401428712825,
      -0.03377448006498883,
      0.056493623572793056,
      0.00423870498219159,
      -0.037067522118172595,
      -0.009020461900248345,
      0.05022110448849103,
      -0.02914187151225127,
      -0.0005563182510634306,
      -0.0031267429468414144
    ],
    [
      -0.04340309318960317,
      -0.056209146726976945,
      0.00974888036547222,
      -0.05726118300836458,
      -0.0406967406149962,
      -0.04366353450022026,
      0.005265336040054859,
      0.00038424958232136856,
      -0.003538637498543371,
      0.09471955402364854,
      0.07894262670905236,
      -0.028097550912278512,
      -0.10184443086104727,
      -0.12717539237895126,
      -0.12318398734976468,
      0.0585142733485552,
      0.08983903123569283,
      -0.0072080787200055575,
      -0.00404517313141094,
      0.02154582244724882,
      0.08406693128333063,
      -0.1357269427701273,
      -0.0042549959280682535,
      0.025935902772182415,
      0.07434746518157541,
      -0.13533736306060412,
      0.08743862746760721,
      0.006649980221358667,
      -0.1319206814162889,
      0.08292883817053155,
      0.005931663321731513,
      -0.13343429085448913,
      -0.008758809641279893,
      -0.03712881333721627,
      0.0026743150275209504,
      -0.007482523964829271,
      6.79149522223605e-05
    ],
    [
      0.041001289213152915,
      0.06379005203134278,
      -0.004477288469446111,
      -0.009869385009900915,
      0.03410833063993864,
      0.03618968391263617,
      -0.0011333590646478721,
      0.009152979520169338,
      0.006923146612828993,
      0.04591045976289734,
      0.025872218490839538,
      0.026828720828440338,
      0.0051386865610446066,
      0.03723866228556978,
      0.027303838311613433,
      0.03361408066281702,
      0.0311853514478704,
      -0.0021695780858042094,
      0.004032015561540916,
      0.021097897392644435,
      0.032800482665071316,
      0.03308244464555048,
      -0.015950794638414475,
      0.0379614065313018,
      -0.015039834018781246,
      0.0012029784142331594,
      0.03637361803623932,
      0.017279472078932594,
      0.0016616791838572264,
      0.03567907919523288,
      0.013745671844956283,
      -0.003626525756700304,
      0.0010300182963701495,
      0.06418875085468395,
      -0.029343102223272095,
      -0.005348463420661944,
      0.008398402189849575
    ],
    [
      0.019058089950857292,
      0.023894524204959047,
      -0.006379795844492454,
      0.0006942540643919402,
      0.024574033331704756,
      0.019909213014787402,
      -0.011442649659537544,
      -0.013431400396717724,
      -0.004872595161616573,
      0.04393679917708784,
      0.01732495009196653,
      0.0173137076635659,
      -0.011381144303207554,
      0.02470403926874203,
      -0.0020474952696298726,
      0.0042490975739877136,
      0.032825128423658534,
      0.0028915127872543335,
      0.007675480580681205,
      -0.0034588718995773237,
      0.04253513936239263,
      -0.014775150831246822,
      -0.01276319989019124,
      0.00833169937208994,
      0.023023769899794957,
      -0.024530717351596516,
      0.018761197951727173,
      0.008340601168616055,
      -0.009098037119652494,
      0.013940115500233429,
      0.00819843690506274,
      0.0010048619979850723,
      -0.005464278535106264,
      0.05873976807982893,
      -0.05514881378200051,
      -0.0015888630803942844,
      0.0036513336593446445
    ],
    [
      -0.154677634621317,
      -0.18512058858000072,
      0.016963253819932616,
      -0.05240184180774923,
      -0.04727572620076026,
      -0.13976016028398222,
      -0.08782013797483387,
      -0.080585131112404,
      -0.09219200495109245,
      0.09738966090366505,
      0.06034510548116327,
      -0.049452950834022166,
      -0.21921774377116143,
      0.08550974493379926,
      -0.1997675452955851,
      -0.2053049614989146,
      0.05238409361546488,
      0.0033058850551273018,
      0.00897522607368263,
      0.03923329773259749,
      0.11730901485523802,
      -0.15100322287592066,
      -0.11333444424453896,
      -0.00019248070533869725,
      -0.01649342924484436,
      -0.15687557996890883,
      0.058227811377960584,
      0.0016454826583728005,
      -0.19501106661064524,
      0.06501585277046032,
      0.0036327306271845615,
      -0.19405082939795248,
      -0.0034151448025280962,
      0.1261330064315438,
      -0.27234435898757176,
      0.004926168839278195,
      -0.009362126244332324
    ],
    [
      0.059054561774565056,
      0.052458861266370116,
      -0.0024178912859197633,
      0.04656151868227422,
      0.04031112432927719,
      0.04552179425177167,
      -0.000689741103591178,
      -0.00030218476981974494,
      0.009428309276370119,
      0.05183775855039624,
      0.05112648111634503,
      0.029563840163222638,
      0.007310767399460363,
      0.037182748662477325,
      0.044394385600759007,
      0.03746953343316706,
      0.039005100200512795,
      -0.0005307189828580878,
      -0.0025457122115002525,
      -0.016330911988977556,
      0.036310825060952186,
      0.036911995608094335,
      -0.018371487873326073,
      0.0028332307228658028,
      0.022231731929302532,
      0.02575917009586843,
      0.04401852138075143,
      0.0001477818279189563,
      -0.001556901268875669,
      0.029936760199183142,
      0.017736326567170724,
      0.002886330065049287,
      0.012992783375217906,
      0.08581090651995892,
      -0.03333956286466214,
      -0.004553706745062633,
      0.009153792106175783
    ],
    [
      0.0517291303784549,
      0.04624958084972341,
      0.004607930653568705,
      0.01871538623236823,
      0.04425652079565706,
      0.039003467681003455,
      0.004081406420439214,
      0.006422942194483413,
      0.00020095532579295734,
      0.05390233664966861,
      0.03341628265513111,
      0.0276749866099213,
      0.019359774023357132,
      0.0523842977113292,
      0.03762619291188067,
      0.0332469138315991,
      0.040243119661002726,
      -0.0014012383200525877,
      0.014008052490820915,
      0.021282380193694123,
      0.02162661743656638,
      0.04470105425400564,
      -0.01245819958326732,
      0.03554667784443337,
      0.004747877309075575,
      0.023151382863946093,
      0.03432076933295641,
      0.003848385763317512,
      0.0014045463156395384,
      0.04340974552758767,
      -0.0009622924429022227,
      -0.0018863866663503866,
      0.005057713413229194,
      0.06992681912712788,
      -0.034296447622952655,
      -0.00932272561167331,
      0.001051892868372293
    ],
    [
      0.03193486708111378,
      0.04986727518201887,
      0.008344953863106904,
      0.033789042328938965,
      0.023270248206625564,
      0.026922541652143216,
      -0.0047139857874702465,
      0.001328722392535115,
      0.005153722416219434,
      0.04705222457330835,
      0.021795413347904066,
      0.02722080222326778,
      -0.0001356533155122859,
      0.022462833299675196,
      0.012645715185268115,
      0.038818285037821844,
      0.03214609128586328,
      -0.0075767052501811705,
      0.006817423596072706,
      0.000855044021955997,
      0.05035902814778628,
      -0.00291514978416141,
      -0.008465724925977764,
      0.014951182282296365,
      0.01616770574445826,
      -0.011859997743587267,
      0.019356237495815956,
      0.01025114972695302,
      0.008127728275078561,
      0.02281655188639333,
      0.0004891852484730256,
      0.01641108769205499,
      0.00014649026487898072,
      0.05678361905637772,
      -0.020567442342382843,
      0.003066531041848017,
      0.009819113021645417
    ],
    [
      0.041328139402810826,
      0.04368360376208379,
      0.0065558576643880186,
      0.03964371692726079,
      0.060030858684537114,
      0.03968341823384794,
      -0.0015458527626967386,
      -0.008872292364747326,
      -0.007849321764060587,
      0.058690245114706385,
      0.04456204076792124,
      0.03809076854335553,
      0.007309186960355883,
      0.046218210982772616,
      0.021836061038241365,
      0.01638003937184491,
      0.049705933062467615,
      0.008914041669121313,
      -0.005470273569970138,
      0.025612864908990018,
      0.045313882352621446,
      0.017167090337536287,
      -0.019073442594236885,
      0.02886517451007,
      0.0005509335542365373,
      0.0018705748295376363,
      0.04623621671506279,
      0.002935514633221136,
      -0.0008000807549938208,
      0.03447534606265608,
      -0.0035523571485095557,
      0.008697478249590957,
      -0.006297098007647129,
      0.061973019328107164,
      -0.022379458221106978,
      0.005905623360816422,
      0.0009608966832618457
    ],
    [
      0.007837513185186143,
      0.012087621771643353,
      -0.00047608181835666916,
      0.02439788003374847,
      0.03497201985994199,
      0.00781858039181856,
      -0.017124336509511028,
      -0.008593411784746817,
      -0.0145898940482377,
      0.04340030978174001,
      0.02123544822863756,
      0.024077971812894325,
      -0.013817513862465844,
      0.022880927925354733,
      -0.00817206876282096,
      0.027323685316219128,
      0.028922102933496355,
      0.009932407111260299,
      -0.006272007730660736,
      0.012919289924513282,
      0.05040002950027822,
      0.005657441774846703,
      -0.05073387035450118,
      0.015609152124280696,
      0.00393200826661874,
      0.009946010573089834,
      0.020117150215616036,
      0.0073011378382036515,
      -0.005846959123010553,
      0.015243688127534714,
      -0.010058933599308944,
      -0.004034126712460087,
      0.0028133338401419277,
      0.07981191318634089,
      -0.0632633090845489,
      0.0024438919018548062,
      -0.002583127507977348
    ],
    [
      0.03712892483798977,
      0.044251897487981626,
      -0.0036986472900371386,
      0.02465787609361453,
      0.04796380649900111,
      0.02879931689797584,
      0.0012994585968481322,
      0.0051848477914486265,
      0.007728202844974935,
      0.03701249393367623,
      0.025752625224553936,
      0.04455590262946324,
      0.014173285006744103,
      0.042974640351318774,
      0.014918005618434618,
      0.04291652416093103,
      0.039874291790875926,
      0.008084416942642671,
      0.0024068593514288295,
      0.018296993054762706,
      0.03190546637514591,
      0.026814619742264487,
      -0.028316886371968837,
      0.014280084291700738,
      0.030103506457336348,
      0.004256545500922293,
      0.020155458986485,
      0.00998297757084762,
      -0.007081812902387267,
      0.02685399848061973,
      0.013291767497241709,
      -0.012615590495326689,
      -0.0050588220401566785,
      0.0817926415882233,
      -0.03230942375600852,
      -0.009178019332310184,
      0.001246865368259695
    ],
    [
      0.05288199195807285,
      0.035823877871878365,
      0.006693128584878514,
      0.02201943574587107,
      0.03957446646217743,
      0.04838137655206377,
      0.006087751175186661,
      -0.0014403214565901013,
      0.00039123505268792464,
      0.04808346111701769,
      0.012807909241739447,
      0.03368404257417366,
      0.015317193181170075,
      0.023959980925708606,
      -0.002709733407192638,
      0.030838380186688982,
      0.023418521618961227,
      -0.005294981532272867,
      0.006615889469387168,
      0.01915057484914953,
      0.015441090602537694,
      0.025048837763879214,
      -0.0005356230735268676,
      0.010269422047725463,
      0.007720700283594922,
      0.013065263698625675,
      0.004835947503086078,
      0.009466147683943733,
      0.02430750218714222,
      0.0038170204412853615,
      0.01335554545797384,
      0.015749097780986605,
      0.004669604497213042,
      0.053285488588285516,
      0.00022963465451716555,
      -0.008914701379528808,
      7.848127109817866e-05
    ],
    [
      0.014813751903663776,
      0.028905148913322028,
      -0.006261131001932258,
      0.02207442733314711,
      0.027488949931480832,
      0.021824033032466376,
      0.006732278527693749,
      -0.008842987498651478,
      0.007025580338391532,
      0.023961525323758632,
      0.03761381670640387,
      0.0277836071973721,
      -0.004036060429446277,
      0.023864014039059946,
      0.006794415546977195,
      0.019228075164460706,
      0.02152677555335959,
      0.005123595334920402,
      -0.006824651014232786,
      0.02476336275923058,
      0.024720763320883923,
      0.008585185875518014,
      -0.021365619056682668,
      0.02582655395816108,
      0.000245989311252812,
      -0.006207062225531401,
      0.019766180858360967,
      0.00012013945540773584,
      -0.010870777932354216,
      0.015245488715975114,
      -0.006358072250565075,
      -0.014027741330765366,
      0.00872807521793219,
      0.05575741171632855,
      -0.026999051235782952,
      -0.00662515911577282,
      0.005697386304190881
    ],
    [
      0.08073519949367268,
      0.07036440176500311,
      0.002761995739251959,
      -0.003181224909326373,
      0.09060984577188638,
      0.08880058859681919,
      0.005155729632333226,
      0.010368648838989589,
      -0.005560466007753015,
      0.07214329745074385,
      -0.011499976067285464,
      0.05714061141916436,
      -0.07739532603192587,
      0.06775024346481037,
      -0.04970721137459376,
      0.004721512144079745,
      -0.01689047269762188,
      0.005292783838716973,
      0.006062933762961088,
      0.1294684955077025,
      0.002867564293248616,
      0.08140378468525182,
      0.0063964859420220215,
      0.022031394047825267,
      0.05703744142227639,
      0.016903700834705302,
      -0.012378093886138739,
      0.0032739706182067056,
      0.09878210218176527,
      -0.02405968101318941,
      -0.009324136939400807,
      0.09551642099811908,
      0.0023210410215881456,
      0.10114250799750144,
      -0.013810665322158994,
      0.007910849012103134,
      -0.007359534131229743
    ],
    [
      0.0393273193659954,
      0.038955121216792246,
      -0.01046492146696346,
      0.02425977830934056,
      0.04871145735961782,
      0.037019449203911946,
      0.001013694150040477,
      -0.003688215798446298,
      0.003942658937224822,
      0.013340535130050079,
      0.013055686771896693,
      0.023066995283367957,
      0.031500333726667024,
      -0.00036814827869465806,
      0.016001176210793177,
      0.027929900368532677,
      0.01195826096606254,
      -0.008083906611253524,
      -0.0015675967109774185,
      0.018660202737108483,
      0.005777851173314699,
      0.03637680026721735,
      0.0015944524211667175,
      0.040418743584672234,
      -0.0062588260777903006,
      0.004997700604323698,
      0.015978653435211054,
      0.0029120820132602,
      0.024685211962033854,
      0.027715141766001188,
      0.004670447482593605,
      0.020780067563108802,
      0.015089945659532578,
      0.0013983598042836979,
      0.02787447814049999,
      -0.00188022551154228,
      -0.005246623879787831
    ],
    [
      -0.007299554231671093,
      0.01486977148701631,
      -0.009697602075410905,
      -0.006510496641053749,
      0.025307911988004743,
      -0.005803382539315692,
      -0.0049407159696351,
      -0.00012334599711609972,
      -0.001898234283703567,
      0.02451939695030758,
      0.02228735653365031,
      -0.008050926242866574,
      -0.014014834985683537,
      0.017417472158742262,
      0.0008563190769585744,
      -0.002949432049002404,
      0.02553107502121094,
      0.00430797227299308,
      -0.008766178290994691,
      -0.011104371208799368,
      0.022681190806993254,
      -0.010090311318053278,
      -0.0020138584687147435,
      0.004692307049976698,
      -0.016043817575227076,
      -0.0014412804088499178,
      0.009952870842574818,
      -0.004658994399280346,
      -0.02162840811895593,
      0.020300018319420562,
      0.00846683884676955,
      -0.011432062018979535,
      0.004233684547622931,
      0.0037015736951669827,
      -0.005773202238309231,
      -0.0012789455524483788,
      0.005769000339102029
    ]
  ],
  "bias": [
    0.005901050707965316,
    -0.02588763228689177,
    0.016056600001596942,
    0.0074804969420822695,
    0.03777026911689036,
    0.026176841355804073,
    0.017946002283673403,
    0.02294785490869479,
    0.032692730328908584,
    -0.02083809869328414,
    -0.09175272704904021,
    -0.023419439036476766,
    -0.026246568110392714,
    0.03245769411893484,
    0.03962046289631965,
    0.019997465637595652,
    -0.03935853050049892,
    0.03840875109623413,
    0.01614797442349244,
    -0.14863922738598573,
    0.055765964499937176,
    0.049389560743721465,
    0.03541969999965456,
    0.04928149098919856,
    0.016572091614621327,
    0.037039663578600016,
    0.04773276686133251,
    0.017256499309916157,
    0.08843362547682364,
    0.044782126556217036,
    0.0015328621668925999
  ],
  "config": {
    "episodes": 12,
    "max_steps": 50,
    "seed": 7,
    "learning_rate": 0.03,
    "gamma": 0.95,
    "gradient_clip": 5.0,
    "epsilon_start": 1.0,
    "epsilon_end": 0.05,
    "epsilon_decay_episodes": 180,
    "eval_every": 4,
    "eval_episodes": 3,
    "n_features": 37,
    "n_actions": 31,
    "feature_names": [
      "bias",
      "battery_pct",
      "battery_drain_rate",
      "solar_a_output",
      "solar_b_output",
      "bus_voltage",
      "star_tracker_error",
      "gyro_error",
      "sun_sensor_error",
      "fuel_units",
      "signal_strength",
      "battery_temp",
      "episode_progress",
      "science_a_online",
      "science_b_online",
      "heaters_online",
      "transponder_online",
      "last_action_error",
      "last_action_refused",
      "last_action_diag",
      "attitude_mode_nominal",
      "attitude_mode_thruster",
      "attitude_mode_tumbling",
      "rw_status_nominal",
      "rw_status_degraded",
      "rw_status_failed",
      "transponder_status_nominal",
      "transponder_status_degraded",
      "transponder_status_offline",
      "link_bandwidth_high",
      "link_bandwidth_low",
      "link_bandwidth_none",
      "mission_status_nominal",
      "mission_status_degraded",
      "mission_status_critical",
      "mission_status_recovered",
      "mission_status_lost"
    ],
    "action_space": [
      {
        "index": 0,
        "command": "shed_load",
        "target": "science_a",
        "label": "shed_load:science_a"
      },
      {
        "index": 1,
        "command": "shed_load",
        "target": "science_b",
        "label": "shed_load:science_b"
      },
      {
        "index": 2,
        "command": "shed_load",
        "target": "heaters",
        "label": "shed_load:heaters"
      },
      {
        "index": 3,
        "command": "shed_load",
        "target": "transponder",
        "label": "shed_load:transponder"
      },
      {
        "index": 4,
        "command": "restore_load",
        "target": "science_a",
        "label": "restore_load:science_a"
      },
      {
        "index": 5,
        "command": "restore_load",
        "target": "science_b",
        "label": "restore_load:science_b"
      },
      {
        "index": 6,
        "command": "restore_load",
        "target": "heaters",
        "label": "restore_load:heaters"
      },
      {
        "index": 7,
        "command": "restore_load",
        "target": "transponder",
        "label": "restore_load:transponder"
      },
      {
        "index": 8,
        "command": "switch_to_backup_battery",
        "target": null,
        "label": "switch_to_backup_battery"
      },
      {
        "index": 9,
        "command": "reset_power_controller",
        "target": null,
        "label": "reset_power_controller"
      },
      {
        "index": 10,
        "command": "reconfigure_power",
        "target": "solar_a",
        "label": "reconfigure_power:solar_a"
      },
      {
        "index": 11,
        "command": "reconfigure_power",
        "target": "solar_b",
        "label": "reconfigure_power:solar_b"
      },
      {
        "index": 12,
        "command": "stabilize_attitude",
        "target": null,
        "label": "stabilize_attitude"
      },
      {
        "index": 13,
        "command": "switch_to_thruster_control",
        "target": null,
        "label": "switch_to_thruster_control"
      },
      {
        "index": 14,
        "command": "desaturate_wheels",
        "target": null,
        "label": "desaturate_wheels"
      },
      {
        "index": 15,
        "command": "recalibrate_star_tracker",
        "target": null,
        "label": "recalibrate_star_tracker"
      },
      {
        "index": 16,
        "command": "cross_validate_attitude",
        "target": null,
        "label": "cross_validate_attitude"
      },
      {
        "index": 17,
        "command": "switch_attitude_reference",
        "target": "star_tracker",
        "label": "switch_attitude_reference:star_tracker"
      },
      {
        "index": 18,
        "command": "switch_attitude_reference",
        "target": "gyro",
        "label": "switch_attitude_reference:gyro"
      },
      {
        "index": 19,
        "command": "switch_attitude_reference",
        "target": "sun_sensor",
        "label": "switch_attitude_reference:sun_sensor"
      },
      {
        "index": 20,
        "command": "recalibrate_imu",
        "target": null,
        "label": "recalibrate_imu"
      },
      {
        "index": 21,
        "command": "query_power_level",
        "target": "battery",
        "label": "query_power_level:battery"
      },
      {
        "index": 22,
        "command": "query_power_level",
        "target": "solar_a",
        "label": "query_power_level:solar_a"
      },
      {
        "index": 23,
        "command": "query_power_level",
        "target": "solar_b",
        "label": "query_power_level:solar_b"
      },
      {
        "index": 24,
        "command": "query_attitude",
        "target": null,
        "label": "query_attitude"
      },
      {
        "index": 25,
        "command": "query_thermal",
        "target": null,
        "label": "query_thermal"
      },
      {
        "index": 26,
        "command": "diagnostic_scan",
        "target": "power",
        "label": "diagnostic_scan:power"
      },
      {
        "index": 27,
        "command": "diagnostic_scan",
        "target": "attitude",
        "label": "diagnostic_scan:attitude"
      },
      {
        "index": 28,
        "command": "diagnostic_scan",
        "target": "comms",
        "label": "diagnostic_scan:comms"
      },
      {
        "index": 29,
        "command": "safe_mode",
        "target": null,
        "label": "safe_mode"
      },
      {
        "index": 30,
        "command": "resume_nominal",
        "target": null,
        "label": "resume_nominal"
      }
    ]
  }
}