{
  "model_type": "linear_q",
  "n_features": 37,
  "n_actions": 31,
  "learning_rate": 0.03,
  "gamma": 0.95,
  "gradient_clip": 5.0,
  "feature_names": [
    "bias",
    "battery_pct",
    "battery_drain_rate",
    "solar_a_output",
    "solar_b_output",
    "bus_voltage",
    "star_tracker_error",
    "gyro_error",
    "sun_sensor_error",
    "fuel_units",
    "signal_strength",
    "battery_temp",
    "episode_progress",
    "science_a_online",
    "science_b_online",
    "heaters_online",
    "transponder_online",
    "last_action_error",
    "last_action_refused",
    "last_action_diag",
    "attitude_mode_nominal",
    "attitude_mode_thruster",
    "attitude_mode_tumbling",
    "rw_status_nominal",
    "rw_status_degraded",
    "rw_status_failed",
    "transponder_status_nominal",
    "transponder_status_degraded",
    "transponder_status_offline",
    "link_bandwidth_high",
    "link_bandwidth_low",
    "link_bandwidth_none",
    "mission_status_nominal",
    "mission_status_degraded",
    "mission_status_critical",
    "mission_status_recovered",
    "mission_status_lost"
  ],
  "action_specs": [
    {
      "index": 0,
      "command": "shed_load",
      "target": "science_a",
      "label": "shed_load:science_a"
    },
    {
      "index": 1,
      "command": "shed_load",
      "target": "science_b",
      "label": "shed_load:science_b"
    },
    {
      "index": 2,
      "command": "shed_load",
      "target": "heaters",
      "label": "shed_load:heaters"
    },
    {
      "index": 3,
      "command": "shed_load",
      "target": "transponder",
      "label": "shed_load:transponder"
    },
    {
      "index": 4,
      "command": "restore_load",
      "target": "science_a",
      "label": "restore_load:science_a"
    },
    {
      "index": 5,
      "command": "restore_load",
      "target": "science_b",
      "label": "restore_load:science_b"
    },
    {
      "index": 6,
      "command": "restore_load",
      "target": "heaters",
      "label": "restore_load:heaters"
    },
    {
      "index": 7,
      "command": "restore_load",
      "target": "transponder",
      "label": "restore_load:transponder"
    },
    {
      "index": 8,
      "command": "switch_to_backup_battery",
      "target": null,
      "label": "switch_to_backup_battery"
    },
    {
      "index": 9,
      "command": "reset_power_controller",
      "target": null,
      "label": "reset_power_controller"
    },
    {
      "index": 10,
      "command": "reconfigure_power",
      "target": "solar_a",
      "label": "reconfigure_power:solar_a"
    },
    {
      "index": 11,
      "command": "reconfigure_power",
      "target": "solar_b",
      "label": "reconfigure_power:solar_b"
    },
    {
      "index": 12,
      "command": "stabilize_attitude",
      "target": null,
      "label": "stabilize_attitude"
    },
    {
      "index": 13,
      "command": "switch_to_thruster_control",
      "target": null,
      "label": "switch_to_thruster_control"
    },
    {
      "index": 14,
      "command": "desaturate_wheels",
      "target": null,
      "label": "desaturate_wheels"
    },
    {
      "index": 15,
      "command": "recalibrate_star_tracker",
      "target": null,
      "label": "recalibrate_star_tracker"
    },
    {
      "index": 16,
      "command": "cross_validate_attitude",
      "target": null,
      "label": "cross_validate_attitude"
    },
    {
      "index": 17,
      "command": "switch_attitude_reference",
      "target": "star_tracker",
      "label": "switch_attitude_reference:star_tracker"
    },
    {
      "index": 18,
      "command": "switch_attitude_reference",
      "target": "gyro",
      "label": "switch_attitude_reference:gyro"
    },
    {
      "index": 19,
      "command": "switch_attitude_reference",
      "target": "sun_sensor",
      "label": "switch_attitude_reference:sun_sensor"
    },
    {
      "index": 20,
      "command": "recalibrate_imu",
      "target": null,
      "label": "recalibrate_imu"
    },
    {
      "index": 21,
      "command": "query_power_level",
      "target": "battery",
      "label": "query_power_level:battery"
    },
    {
      "index": 22,
      "command": "query_power_level",
      "target": "solar_a",
      "label": "query_power_level:solar_a"
    },
    {
      "index": 23,
      "command": "query_power_level",
      "target": "solar_b",
      "label": "query_power_level:solar_b"
    },
    {
      "index": 24,
      "command": "query_attitude",
      "target": null,
      "label": "query_attitude"
    },
    {
      "index": 25,
      "command": "query_thermal",
      "target": null,
      "label": "query_thermal"
    },
    {
      "index": 26,
      "command": "diagnostic_scan",
      "target": "power",
      "label": "diagnostic_scan:power"
    },
    {
      "index": 27,
      "command": "diagnostic_scan",
      "target": "attitude",
      "label": "diagnostic_scan:attitude"
    },
    {
      "index": 28,
      "command": "diagnostic_scan",
      "target": "comms",
      "label": "diagnostic_scan:comms"
    },
    {
      "index": 29,
      "command": "safe_mode",
      "target": null,
      "label": "safe_mode"
    },
    {
      "index": 30,
      "command": "resume_nominal",
      "target": null,
      "label": "resume_nominal"
    }
  ],
  "weights": [
    [
      0.4764030150985141,
      0.2778141974225012,
      0.0032461059738487486,
      0.4216388984489736,
      0.30880078580875503,
      0.47653836615548884,
      0.02172262815956941,
      0.018393789431572282,
      0.005008299550790851,
      0.5481475686957182,
      0.17713338715115431,
      0.28835195569769984,
      0.14797828466340765,
      0.2637300070275743,
      0.15109504704990653,
      0.4167883177042921,
      0.2725874534424766,
      0.008954178849140114,
      0.005597777061855924,
      0.13617644369483953,
      0.5237374690601334,
      0.027833891721292293,
      -0.06401887607438811,
      0.3299577580157083,
      0.12084908813165329,
      0.010152645809838719,
      0.2181117863356635,
      0.024040129861393714,
      0.2338811348677113,
      0.2235741531268741,
      0.02049587205751676,
      0.23771455812374717,
      0.05769934960480598,
      0.48393101348081813,
      -0.07830131107079115,
      -0.0058808257436134695,
      0.003607999463635719
    ],
    [
      0.489413102557253,
      0.29806087333453846,
      0.0028174036859456722,
      0.2706372213667656,
      0.2885172730856353,
      0.4967721971199397,
      0.0696796172506188,
      0.0433582595029542,
      0.04508678984346058,
      0.5619098953058721,
      0.1974175898975279,
      0.3437478085098838,
      -0.08483043389516744,
      0.12298485128323033,
      0.34219516530722116,
      0.3777392374763432,
      0.384374966626409,
      -0.006960309306789905,
      -0.00022073799048388798,
      0.1163613833815349,
      0.5570917364143766,
      0.005986109766083493,
      -0.06210033647610362,
      0.38218714798387804,
      0.0945484152059077,
      0.021816107073131877,
      0.2380018274893848,
      0.006689200504893498,
      0.2487796367033651,
      0.24291378555753526,
      0.013984918321402407,
      0.2491374968257297,
      -0.04313340362684265,
      0.6011055042086261,
      -0.0685845710503923,
      0.0029425770905533756,
      0.009861918789332682
    ],
    [
      0.5157764706620039,
      0.3729134505120796,
      -0.0070553755196785355,
      0.3091009235582731,
      0.3787211902180887,
      0.5082887328882297,
      0.09583343122746718,
      0.034721923584602105,
      0.02572749712465935,
      0.5035468783470426,
      0.25601779942489966,
      0.2656251383004025,
      0.10812704453865907,
      0.22232378161753902,
      0.31673419312073564,
      0.33530970360106693,
      0.27066845364268727,
      0.00766767652883025,
      -0.08781726037532712,
      0.16210816355165122,
      0.4444579147970618,
      0.14736607804457336,
      -0.09143624297068138,
      0.16876336679736106,
      0.22630378232486198,
      0.12412772454665258,
      0.27772192906355875,
      -0.01987878169755422,
      0.2343250411436202,
      0.2838968291005785,
      -0.012735448959299825,
      0.2349132518559737,
      0.0036246525207706895,
      0.4564335815393376,
      0.035125614417803264,
      0.0013268244741278384,
      0.009061958510501905
    ],
    [
      0.4698604784578165,
      0.2765715037376903,
      0.010240098186710608,
      0.4615474679514637,
      0.34173714385663373,
      0.4719778932066688,
      0.015406082013335794,
      0.00586276481243938,
      0.0027223525686231372,
      0.6648249721627824,
      0.12179150784188798,
      0.2842876713979263,
      0.08901210745970013,
      0.12946332476534797,
      0.08272300386196454,
      0.5332941141387865,
      0.26588597534460534,
      -0.003198926955353132,
      0.06065502757882424,
      -0.07960784455045572,
      0.5382979957081405,
      0.022495100465757645,
      -0.11241570641206927,
      0.5362037277085364,
      0.07784354288735959,
      -0.1477186202442304,
      0.12117955829923456,
      0.10356908028794604,
      0.22626592248675015,
      0.1254918173831824,
      0.1009807697720484,
      0.23629687009536843,
      0.1762931727426814,
      0.41128861814055057,
      -0.11267264882251632,
      -0.008282306768876688,
      -0.007956247665036631
    ],
    [
      0.4609406854033976,
      0.24269407279376176,
      0.024158107042925765,
      0.43028350552590383,
      0.4046777339975785,
      0.4731542227086073,
      0.0038057545731748545,
      -0.016009451226142314,
      -0.0107179853360431,
      0.6078983777958915,
      0.28574183410433485,
      0.2355546441874197,
      0.18025793270389154,
      0.020817212589698143,
      0.1777041029690532,
      0.45159684027985336,
      0.2668094876480581,
      0.005438758168040625,
      0.05193938124333505,
      -0.01847131840445967,
      0.523662270916969,
      0.12682606558736567,
      -0.18911600956730623,
      0.34445697326814606,
      0.1375125830984527,
      0.004991080954403087,
      0.3334640131215559,
      -0.05184654167834543,
      0.1881694062699808,
      0.32745012873991847,
      -0.05953275121876056,
      0.18421421948417638,
      0.1221687382503116,
      0.4708769476154729,
      -0.1476271176724699,
      0.003850438834002467,
      0.009130301526826758
    ],
    [
      0.46973989031355445,
      0.3438136021462488,
      0.008578576413512904,
      0.36487580916277357,
      0.3965983789985629,
      0.46435450872682166,
      0.042598454511520584,
      0.03885697520030329,
      0.04017266061410802,
      0.546193845468754,
      0.20577777291120788,
      0.2698971182338962,
      0.1414950168654753,
      0.2582931705318244,
      0.05743345491327021,
      0.46064337399617883,
      0.25887299250990403,
      0.008195542751034459,
      0.06319619309066661,
      0.17000734484360533,
      0.45357178449484237,
      0.07519696770821883,
      -0.05905961756580425,
      0.4889163977819903,
      0.06558188339100247,
      -0.07160298325990364,
      0.215243673288514,
      0.03636211247603515,
      0.22406999738171163,
      0.22182287669980935,
      0.03173444931811902,
      0.20767482459837106,
      0.0642651795435724,
      0.49036212505260063,
      -0.07658187227501465,
      -0.007076513825122517,
      0.006530209570507742
    ],
    [
      0.5519050783701125,
      0.4555350796312128,
      -0.010301787436921565,
      0.420152908442445,
      0.3359343399498916,
      0.5318895319443656,
      0.08098028363280514,
      0.06011491503319771,
      0.05721447549648518,
      0.5747195726312594,
      0.17939993386112138,
      0.34829934435678883,
      0.1704102106176679,
      0.07350659212336765,
      0.07136598031514674,
      0.21519153607207103,
      0.32835874157109207,
      0.0017287433633192337,
      0.05463297059936177,
      0.005691455909141559,
      0.5328186005194243,
      0.09985247837675895,
      -0.09247462425956512,
      0.46210565745474463,
      0.05305052228470629,
      0.03605891042283346,
      0.19915017429216517,
      0.06362212776415516,
      0.286326623368291,
      0.2013741081267025,
      0.05573783778904519,
      0.2766677419039948,
      0.23798335634932863,
      0.34778970699046485,
      -0.06093079820896586,
      0.005983409009844435,
      -0.006553065755731022
    ],
    [
      0.45044432969548,
      0.39868305501046297,
      -0.0004652767217437488,
      0.5505745957312976,
      0.37031973679473984,
      0.45033529617920676,
      -0.06325981880945429,
      -0.05207315052621047,
      -0.04922181847586495,
      0.7343648302852082,
      0.13181346136155275,
      0.32411506447978716,
      -0.08906538820104805,
      -0.20938943594277842,
      0.18983837232272158,
      0.5256090550404686,
      0.05415319702419918,
      0.0022505576868892072,
      -0.004047069792291913,
      -0.32995532920501325,
      0.7165924668555956,
      0.06893157102727646,
      -0.33098232218878537,
      0.31927466957684203,
      0.07951156786044938,
      0.06456334016396693,
      0.1643628047673679,
      -0.01823628249103599,
      0.3164141160539454,
      0.1580223712617103,
      -0.01821455357683783,
      0.32802226583945615,
      0.23495751465745132,
      0.48380805344450445,
      -0.28377360748459346,
      -0.008549078006870235,
      -0.005187224830934602
    ],
    [
      0.3406050034839441,
      0.16651348285076037,
      0.027770648675688743,
      0.4796629924005065,
      0.45461621231521004,
      0.3568199685143206,
      -0.07104821742061221,
      -0.1261554788102528,
      -0.10449021287470434,
      0.5936535154430779,
      0.3498318694368738,
      0.27735343880975283,
      -0.067806848205024,
      -0.013572553508230096,
      0.2355997166994727,
      0.3466210663912596,
      0.43521184688085496,
      -0.0013695636400472225,
      0.12924364176195574,
      0.1458593364005661,
      0.5459655698367287,
      0.13516499615395774,
      -0.3372595564539397,
      0.24514436755163943,
      0.08837661238894404,
      0.0059014337571757156,
      0.3427701898541265,
      0.08620393322849144,
      -0.09036139606090945,
      0.3526537959268549,
      0.08085979129746668,
      -0.08313827265606474,
      0.20551623952685089,
      0.490111952166504,
      -0.3391888313685145,
      -0.004688714553129605,
      -0.009208236201718647
    ],
    [
      0.539778591519059,
      0.22560291646434777,
      -0.0032167783169363843,
      0.4131475468354422,
      0.41102991935381417,
      0.5407936251640536,
      0.09179245059845774,
      0.06895221232177749,
      0.07705770307476743,
      0.647894014602146,
      0.26676108665875875,
      0.32580693942780153,
      -0.03751832738344567,
      0.003335550028065141,
      -0.03964835126180572,
      0.39482811064998896,
      0.4042151096967908,
      0.0026887901259311908,
      0.08903346154911836,
      0.015500548541477387,
      0.5064071009213237,
      0.018743561124282153,
      0.014760503678104945,
      0.4149862018199391,
      0.10115413647074964,
      0.014978092961324638,
      0.3050033410343924,
      0.05947281298825622,
      0.16619756550793346,
      0.2970082558835113,
      0.05888434144393421,
      0.16580209881161256,
      0.022763388393521433,
      0.49285615768554497,
      -0.0031489620098521156,
      -0.0037601519184304634,
      -0.0038998920424154647
    ],
    [
      0.5198243324761607,
      0.3826743305823463,
      -0.0030367122684494315,
      0.053230753639885074,
      0.37980157232043377,
      0.5044525154992537,
      0.06856316888307315,
      0.04955540307699659,
      0.05501406009644062,
      0.7045619745842565,
      0.21123253736710354,
      0.3702105454917625,
      -0.03523222939964942,
      -0.0922007485167592,
      -0.006432637292016418,
      0.5930208009673852,
      0.31015607974396936,
      0.006692278666604453,
      -0.0021382784887682815,
      -0.10590905275538504,
      0.7452032819153797,
      -0.17486273881122164,
      -0.0454484376975093,
      0.45898530415765776,
      0.18794536902385317,
      -0.11879652792940784,
      0.22934572524037553,
      0.01990504617445534,
      0.2515163644743686,
      0.22384814268925643,
      0.014368458883030835,
      0.2652463777022584,
      0.21155298814861445,
      0.4203825343688815,
      -0.1372346497462263,
      0.006825379637015129,
      0.007410756424954966
    ],
    [
      0.4856467848214955,
      0.357297906712335,
      -0.007184865564334574,
      0.44380888257049295,
      0.09959172199803876,
      0.47447964749017185,
      0.023284480585208597,
      0.015431303325641611,
      0.030628389404725193,
      0.5706311094794027,
      0.19740755607197844,
      0.3422360966454605,
      0.028629592975414765,
      0.10122124328109366,
      -0.0970646322822914,
      0.4761436391154302,
      0.273606189042117,
      -0.0005071274520562791,
      0.02219356828869544,
      -0.009092574979432552,
      0.5688316334657557,
      -0.038267631528577345,
      -0.06285098593745794,
      0.4248683829440454,
      0.059825320603352626,
      -0.021839154166854814,
      0.2282434385927604,
      -0.03930051547204265,
      0.2744839612183125,
      0.2395052213369878,
      -0.034801615710667214,
      0.28483858249021626,
      0.19441900586953886,
      0.4509368894392134,
      -0.14806742030718265,
      -0.0022096705787910008,
      -0.0034773049174730095
    ],
    [
      0.4694324072558558,
      0.5353793093035182,
      0.014338206760893318,
      0.15744463316597015,
      0.19178734933894606,
      0.4679809956694463,
      0.17187668765863925,
      0.13912118236463036,
      0.1422411242841355,
      0.7190021369207139,
      0.24910199590321658,
      0.48431504433642125,
      -0.06965632898986505,
      0.10290201530736709,
      0.09193628457440833,
      0.32022084676902013,
      0.5148818077575078,
      0.007856594728110155,
      0.012609600636181169,
      -0.09322666329672444,
      0.7083533581309778,
      -0.11006879360993216,
      -0.16066285007174916,
      0.46788983925814265,
      -0.00838396522544917,
      -0.0037391455322802487,
      0.3443954238063005,
      0.08804270244405395,
      0.03355011558301319,
      0.34683816239799825,
      0.08527324657082568,
      0.021091872946914454,
      0.4967799971730236,
      0.35855941751864334,
      -0.38462290964415646,
      0.0007039962845954185,
      0.0031859897860869978
    ],
    [
      0.4973062812360027,
      0.43165144887953566,
      -0.00574398942037735,
      0.359651847815783,
      0.3926153396172058,
      0.5102752330025144,
      0.03177779555953597,
      0.044621532009608306,
      0.0452970701101759,
      0.4744648482125392,
      0.25003734508038605,
      0.2881063175617238,
      0.31098761630908955,
      0.12641209038547183,
      0.09072824767045086,
      0.4659901199129566,
      0.27429356556157347,
      -0.007051498542461851,
      -0.0049211943668820935,
      0.10145621539695379,
      0.4831005536917828,
      0.06035643090757954,
      -0.04977874950473321,
      0.29620379900998894,
      0.1647730846278069,
      0.03503709764392632,
      0.26783202153937,
      0.022269964219511905,
      0.2190582745089296,
      0.2643190319688492,
      0.018049068150742704,
      0.22256792802627998,
      0.041608584514395176,
      0.4687883017213096,
      -0.010183295749418432,
      0.009562514735140538,
      0.008725086819074327
    ],
    [
      0.4940176819958946,
      0.47914418863664066,
      0.01098241288754874,
      0.37233980833522645,
      0.44270553294314413,
      0.5017205103290421,
      0.04017523303975823,
      0.06017679100698011,
      0.03441436435173318,
      0.6598127499376998,
      0.21600465866445534,
      0.4135440619958622,
      0.017750373960940924,
      0.0739696020988623,
      0.018198576805314184,
      0.5251550974653828,
      0.36114225868373995,
      0.0040667407758814885,
      -0.018510946224939394,
      0.12174453144365474,
      0.6318019093503091,
      0.006379721190501642,
      -0.1542227270374991,
      0.2196622636653285,
      0.2682588127092392,
      0.01063466553016377,
      0.2280392882142912,
      0.036069492963216494,
      0.2255737199432652,
      0.24202976448209734,
      0.029225117673007665,
      0.23426683985919214,
      0.26544817948737964,
      0.45793037426991107,
      -0.21199994083514917,
      0.004260471315938475,
      0.008031331261978717
    ],
    [
      0.49029280010217763,
      0.3706970781934564,
      0.0033257711539581973,
      0.2997093108741932,
      0.26516232176512144,
      0.49168283356340275,
      0.25044895617246876,
      0.1459476644376942,
      0.14012449812246655,
      0.6167844736635657,
      0.20264030006978975,
      0.34788309757802055,
      0.1084628936466177,
      0.06954943774127659,
      -0.07134517162445425,
      0.5149617911182146,
      0.36682439647724624,
      -0.002533014299699268,
      0.10426248526855397,
      -0.03195389058419068,
      0.6198089108154643,
      0.010518562593870151,
      -0.11870569331068276,
      0.40559316937826784,
      0.05294001051393034,
      0.05015296160001581,
      0.23286629490072647,
      0.008313228690861738,
      0.24797039584821567,
      0.24693013439666947,
      0.006555993530182051,
      0.24467735379503197,
      0.2661919729051528,
      0.4116420698804904,
      -0.1912765964245806,
      -0.0005563182510634306,
      -0.0031267429468414144
    ],
    [
      0.5105158851040917,
      0.30144126960797546,
      0.0073584811992838855,
      0.4443421728156068,
      0.4972300812463175,
      0.5086518089540638,
      0.040726006779111805,
      0.01423112392954919,
      0.004578762942555119,
      0.5654352081870742,
      0.21672060750214636,
      0.3273006892006513,
      0.08685156859598658,
      0.15464402456796333,
      0.2905965997296916,
      0.39189737703455524,
      0.3711122527139765,
      -0.0072080787200055575,
      0.05286177669870731,
      0.13461273658736547,
      0.5224791045022025,
      0.025121674889164815,
      -0.04959680851253749,
      0.5092902672606126,
      0.15088543846140212,
      -0.14131072253516622,
      0.2493015255730806,
      0.12532785407723881,
      0.14145752491605235,
      0.24479173627600503,
      0.12460953717761165,
      0.13994391547785212,
      0.11160391577229534,
      0.38718159025124027,
      0.011920164319183874,
      -0.007482523964829271,
      6.79149522223605e-05
    ],
    [
      0.45698737795321276,
      0.4081271672345433,
      -0.0007952919393373152,
      0.3086333075844056,
      0.5480492519188714,
      0.45263778515909653,
      -0.06202676987974881,
      -0.05889723526250106,
      -0.062376423751353695,
      0.5486725780986704,
      0.2430307382004417,
      0.3143939359407573,
      0.11964468805843462,
      0.1798530689286455,
      0.22128350672947694,
      0.59504205498561,
      0.1956391011196107,
      -0.0021695780858042094,
      0.07328344851216596,
      0.08332415345357906,
      0.5332790812789846,
      0.07357870838901215,
      -0.14093956825572967,
      0.3968968297494435,
      0.05283814140884292,
      -0.009624331491472786,
      0.24751792121226424,
      0.06766899681319807,
      0.15611394001362658,
      0.24682338237125778,
      0.06413519657922176,
      0.15082573507306904,
      0.10017910208446354,
      0.4289226879621817,
      -0.07724003437880321,
      -0.005348463420661944,
      0.008398402189849575
    ],
    [
      0.4383992581332997,
      0.3700529232967921,
      -0.002214894981679346,
      0.3822023882218112,
      0.348802270641172,
      0.4387240171544422,
      0.015943852967906482,
      0.017474946530604524,
      0.0353153905885274,
      0.742209112966319,
      0.15523023359987728,
      0.2698777726690803,
      -0.016819728987335584,
      -0.019303831141309364,
      0.2318514221503032,
      0.4878933820500658,
      0.213890267023361,
      0.0028915127872543335,
      0.007675480580681205,
      0.2124814299176666,
      0.5393737448682526,
      -0.026616049564837874,
      -0.07841973848001801,
      0.45855529939951856,
      0.1429603230434242,
      -0.17534970234021205,
      0.24394249231427212,
      -0.03577555459422635,
      0.22917799246308723,
      0.23912140986277836,
      -0.035917718857779654,
      0.2392808915807249,
      0.043106558152342725,
      0.5868255669755862,
      -0.2124642811827646,
      -0.0015888630803942844,
      0.0036513336593446445
    ],
    [
      0.4920215813126906,
      0.3559565580685274,
      0.011128920442878276,
      0.2653432556505805,
      0.3544858506428339,
      0.5047218134895411,
      0.05948400992609967,
      0.05274733133928578,
      0.039804541449078655,
      0.540499546454835,
      0.246801306653299,
      0.28709881335798654,
      0.17731856382169772,
      0.371404856468608,
      0.12260079942962777,
      0.4676973728716577,
      0.3230875165348072,
      0.0033058850551273018,
      0.003724951168374545,
      0.012313774455802704,
      0.6785127458378518,
      -0.10898615393678139,
      -0.06985602823228446,
      0.449615734890185,
      0.18231928604182185,
      -0.158797294917091,
      0.24903524359583815,
      0.08154147335983764,
      0.18098472640401994,
      0.25582328498833795,
      0.08352872132864939,
      0.18194496361671267,
      0.23570599666337116,
      0.3643499770899156,
      -0.10298325517783531,
      0.004926168839278195,
      -0.009362126244332324
    ],
    [
      0.5298521128700863,
      0.42858348351093195,
      -0.00033040710592968745,
      0.4032173345516721,
      0.427977408028894,
      0.516342787731545,
      0.059916909406050795,
      0.05411256383538043,
      0.05113353149817782,
      0.5858038815646865,
      0.24719633472235594,
      0.3672689030240108,
      0.1020602454086442,
      0.09297373384246999,
      0.024138873861578362,
      0.48693650480241546,
      0.3486705253851066,
      -0.0005307189828580878,
      -0.003556600720446359,
      0.036655507511413554,
      0.5561883818018171,
      0.04408252399076549,
      -0.07462202190134098,
      0.38347763685929226,
      0.12232455010094644,
      0.015819496883319184,
      0.2567279382211038,
      0.023559122213108553,
      0.23311989260110358,
      0.24264617703953553,
      0.04114766695236032,
      0.23756312393502851,
      0.32752713478014817,
      0.3675736702880853,
      -0.1588391269421977,
      -0.004553706745062633,
      0.009153792106175783
    ],
    [
      0.49138337283100086,
      0.40294800653721297,
      0.02786459551075355,
      0.5110681660919834,
      0.4740263549502479,
      0.47737386732837483,
      -0.04003008908621814,
      -0.060789114523894086,
      -0.06144300714195815,
      0.6135848139336962,
      0.2929221010994991,
      0.3417785269513735,
      0.1246629234299051,
      0.22917952222970342,
      0.05146443262237323,
      0.5542915673588535,
      0.26891069079363983,
      -0.0014012383200525877,
      -0.13365222889743786,
      0.18217262415998567,
      0.6191727737522538,
      0.028602065734785843,
      -0.15425112492718931,
      0.4787439387107353,
      0.0011620397876884007,
      0.02319420197157717,
      0.2515845807574095,
      0.015252145471501386,
      0.21239121763554844,
      0.26067355695204075,
      0.010441467265281666,
      0.2091002846535585,
      0.44517265297142644,
      0.26092940416331667,
      -0.22575972976479272,
      -0.00932272561167331,
      0.001051892868372293
    ],
    [
      0.4964650944190157,
      0.38427855834837066,
      0.009858918065013544,
      0.40639404397567275,
      0.36556225783008883,
      0.4906717799736608,
      0.07800911144992946,
      0.056230543480353654,
      0.06210751110859401,
      0.5794054480601077,
      0.25115927550578165,
      0.3168895856388033,
      0.08601337334863282,
      0.1776208549002378,
      0.17577289095427726,
      0.4080333434028167,
      0.29522306604799275,
      -0.0075767052501811705,
      -0.014485470344216576,
      -0.0006265381568892033,
      0.5241797559443379,
      -0.005840710820163625,
      -0.01483066434862504,
      0.44699674982300874,
      0.036497076881350815,
      0.00029529091670970915,
      0.23959086128173088,
      0.03384731276203004,
      0.2288271687919891,
      0.24305117567230825,
      0.024085348283550023,
      0.2371105282089655,
      0.10484507111541028,
      0.43509931485526016,
      -0.03905149165389475,
      0.003066531041848017,
      0.009819113021645417
    ],
    [
      0.44379476000608703,
      0.42197860625885386,
      0.031450829053727584,
      0.45970427923086765,
      0.5424302205406575,
      0.4420860288418725,
      -0.056291056187747775,
      -0.0995396081821689,
      -0.10219276152485492,
      0.6025255371879772,
      0.3143083780849362,
      0.28602261736877344,
      0.01227524544609545,
      0.23956652118304808,
      0.2935005931908027,
      0.2717073927379276,
      0.32273192948023327,
      0.008914041669121313,
      0.05850542092726257,
      0.18564194744027834,
      0.5984174123780066,
      0.10399996031403197,
      -0.25654322199284174,
      0.3454391132976016,
      0.0530911476167802,
      0.03522304258273862,
      0.2450102387898194,
      0.04112024104877192,
      0.16470779135797514,
      0.2332493681374127,
      0.03463236926704119,
      0.1742053503625599,
      0.13063147773597492,
      0.5717136145459575,
      -0.26658200857930325,
      0.005905623360816422,
      0.0009608966832618457
    ],
    [
      0.31704248173557115,
      0.3097003963773666,
      0.024958208604549864,
      0.3203327215815072,
      0.36699648644354493,
      0.3158272631966691,
      -0.020048789638293152,
      -0.05331047831040651,
      -0.06081593551848187,
      0.4623126371591578,
      0.3952298263430588,
      0.36539468340622755,
      -0.20506165300465762,
      -0.021720495732960234,
      0.3028565618401363,
      0.6362253842445804,
      0.5304134916333508,
      0.009932407111260299,
      -0.033068645808880755,
      0.0640937818240195,
      0.40083886407517466,
      0.12390115522857811,
      -0.21021144983274423,
      0.305886919445469,
      0.02295260586878987,
      0.009852614200115265,
      0.3805664340202282,
      0.07645872238191534,
      -0.12624885892094956,
      0.37569297193214696,
      0.059098650944402746,
      -0.12443602651039913,
      0.4894071985136968,
      0.19410692203576027,
      -0.3549472140571386,
      0.0024438919018548062,
      -0.002583127507977348
    ],
    [
      0.5143403980439933,
      0.4523754195122555,
      0.010636928254703618,
      0.43561286864147675,
      0.4663297817644109,
      0.5056418803156072,
      0.033753806005473626,
      0.014878044606375733,
      0.015130109475291831,
      0.5078900513212513,
      0.23980540494674207,
      0.3952851947883454,
      0.10119370069028989,
      0.2643508924370959,
      0.008975349572322091,
      0.46519907360964846,
      0.30941668524381327,
      0.008084416942642671,
      0.008394510543333789,
      0.12286232309421793,
      0.5484755403597819,
      0.09068944253244501,
      -0.1315503099407818,
      0.4926729812077227,
      0.054034588501539506,
      -0.020855960253299277,
      0.23227875031594938,
      0.04658149001549366,
      0.22140785652950615,
      0.23897728981008404,
      0.049890279941887744,
      0.2158740789365668,
      0.4813873809788691,
      0.22716016657274904,
      -0.18691167855355617,
      -0.009178019332310184,
      0.001246865368259695
    ],
    [
      0.5345768928273523,
      0.3638050314993894,
      0.0047365974631792,
      0.34617575579029286,
      0.3103734493558599,
      0.5280349841418253,
      0.10057137062937951,
      0.03751351121525259,
      0.03863876367766771,
      0.5306377883741418,
      0.25562014998133703,
      0.36199469863969685,
      0.03617658951309306,
      0.2799165313407622,
      0.11164156181725325,
      0.44424323968815516,
      0.3348899808347536,
      -0.005294981532272867,
      0.05073793868969617,
      0.13045879512927894,
      0.5282394201338146,
      0.04420501341616164,
      -0.05079522738780662,
      0.36952255928847727,
      0.11519918354435196,
      0.02802854406639656,
      0.2286131037365584,
      0.05096019202864373,
      0.2407312024782498,
      0.2275941766747577,
      0.054849589802673834,
      0.2321727980720941,
      0.022177500939608172,
      0.5371167542514526,
      -0.01941462658176518,
      -0.008914701379528808,
      7.848127109817866e-05
    ],
    [
      0.4136651340509241,
      0.3776469180652335,
      -0.006194364070636647,
      0.3881647270893987,
      0.29679239974258675,
      0.41989498232517203,
      0.07128078691562428,
      0.027485341728833386,
      0.04226389836777652,
      0.5231725782511915,
      0.3131877676808985,
      0.2738728483963821,
      0.011702903537006383,
      0.2655338639467386,
      0.25606186034546197,
      0.2683260627177837,
      0.33360534660082647,
      0.005123595334920402,
      0.003958683118785486,
      0.1883522435341101,
      0.40141820693602726,
      0.08472938366385149,
      -0.07535587831289925,
      0.35868147090659475,
      0.06741444184222196,
      -0.0073790495576739855,
      0.2778452718821119,
      0.05411961947912363,
      0.07590203316743896,
      0.27332457973972607,
      0.04764140777315082,
      0.07274506976902781,
      0.10170080605990925,
      0.34975876663380345,
      -0.015121754847974499,
      -0.00662515911577282,
      0.005697386304190881
    ],
    [
      0.46875301870662767,
      0.35099140399596496,
      0.012957584134344682,
      0.42723693060653983,
      0.43343294644905866,
      0.4765117182889751,
      -0.014135798186490644,
      -0.015578851710749563,
      -0.03690110748289861,
      0.6354774607750306,
      0.26666932593882303,
      0.27213768625558227,
      0.06645479281288992,
      0.2800306070333954,
      0.056751867387813036,
      0.3469598715353075,
      0.32056406519729913,
      0.005292783838716973,
      0.02916694038919368,
      0.061505876918934964,
      0.5667543702268278,
      0.10427801857461991,
      -0.19234673466797042,
      0.28333935574988084,
      0.17634105103598013,
      0.02430994873190106,
      0.17402258970101575,
      0.100113568556372,
      0.2035596398694001,
      0.16234100257396505,
      0.08751546099876449,
      0.20029395868575386,
      0.12882648931745186,
      0.5268482980103403,
      -0.17800408441790644,
      0.007910849012103134,
      -0.007359534131229743
    ],
    [
      0.32905646325595383,
      0.36194007121216276,
      0.00010407657736434886,
      0.2372847412740488,
      0.23347980348612252,
      0.32650335190650503,
      0.06162489117758256,
      0.0014351732990956628,
      0.008455971244512014,
      0.5264693196139204,
      0.1450760389570911,
      0.2300266996909361,
      -0.05608286321650764,
      0.14680555643750756,
      -0.03614833226846918,
      0.27337192177206315,
      0.2489359860102762,
      -0.008083906611253524,
      0.03804658033059114,
      0.03059352697299062,
      0.4390531393263464,
      0.13279976329371612,
      -0.2383746548684052,
      0.07140184101845237,
      0.11744691086687359,
      0.14003801011583805,
      0.19249343265263963,
      -0.023342316112627853,
      0.16415397476045182,
      0.20422992098342976,
      -0.021583950643294464,
      0.16024883036152673,
      0.06903169509750559,
      0.4099514003994812,
      -0.14489116800271198,
      -0.00188022551154228,
      -0.005246623879787831
    ],
    [
      0.39882730603836014,
      0.5386256758226167,
      0.008702965266472186,
      0.4973763312019036,
      0.6112013110933692,
      0.40898192983107373,
      -0.16086735041214142,
      -0.17322511188721132,
      -0.1637993749363398,
      0.4494618345302831,
      0.286876868724268,
      0.44345038200065334,
      0.16506184739574162,
      -0.028019187357365336,
      -0.1950847498303442,
      0.3652224759793226,
      0.11272645094763512,
      0.00430797227299308,
      -0.08377773368781866,
      0.3171344608463358,
      0.6719737674642827,
      -0.14605431134879351,
      -0.10921557482523242,
      0.45631704474252294,
      -0.05261387041489831,
      -0.010369104991693828,
      0.19747125374751914,
      0.055436819492679604,
      0.13688425535417098,
      0.2078184012243651,
      0.0685626527387295,
      0.14708060145414734,
      0.9984829124223454,
      -0.18336194553790597,
      -0.40683205060992733,
      -0.0012789455524483788,
      0.005769000339102029
    ]
  ],
  "bias": [
    0.47992635980185083,
    0.4908612564438649,
    0.5093379749298096,
    0.46605060531509684,
    0.46408796863853763,
    0.47079533675821994,
    0.542298959501172,
    0.450974471046241,
    0.34914258814449056,
    0.5341986429177011,
    0.5146343673761894,
    0.4822359188633219,
    0.4597378255543699,
    0.5059852741115596,
    0.5036675928795613,
    0.4944961409226672,
    0.514560447793196,
    0.45439483983629403,
    0.43548914260593485,
    0.498059988548022,
    0.5265635155954583,
    0.4890438031962674,
    0.49994992733755644,
    0.4517481115924748,
    0.3257770601650062,
    0.5142511367846037,
    0.5294276677306119,
    0.4161078814571765,
    0.4764514446897786,
    0.33451127044617546,
    0.40765972243692394
  ],
  "config": {
    "episodes": 80,
    "max_steps": 50,
    "seed": 7,
    "learning_rate": 0.03,
    "gamma": 0.95,
    "gradient_clip": 5.0,
    "epsilon_start": 1.0,
    "epsilon_end": 0.05,
    "epsilon_decay_episodes": 180,
    "expert_mix_start": 0.75,
    "expert_mix_end": 0.0,
    "expert_decay_episodes": 140,
    "eval_every": 20,
    "eval_episodes": 5,
    "n_features": 37,
    "n_actions": 31,
    "feature_names": [
      "bias",
      "battery_pct",
      "battery_drain_rate",
      "solar_a_output",
      "solar_b_output",
      "bus_voltage",
      "star_tracker_error",
      "gyro_error",
      "sun_sensor_error",
      "fuel_units",
      "signal_strength",
      "battery_temp",
      "episode_progress",
      "science_a_online",
      "science_b_online",
      "heaters_online",
      "transponder_online",
      "last_action_error",
      "last_action_refused",
      "last_action_diag",
      "attitude_mode_nominal",
      "attitude_mode_thruster",
      "attitude_mode_tumbling",
      "rw_status_nominal",
      "rw_status_degraded",
      "rw_status_failed",
      "transponder_status_nominal",
      "transponder_status_degraded",
      "transponder_status_offline",
      "link_bandwidth_high",
      "link_bandwidth_low",
      "link_bandwidth_none",
      "mission_status_nominal",
      "mission_status_degraded",
      "mission_status_critical",
      "mission_status_recovered",
      "mission_status_lost"
    ],
    "action_space": [
      {
        "index": 0,
        "command": "shed_load",
        "target": "science_a",
        "label": "shed_load:science_a"
      },
      {
        "index": 1,
        "command": "shed_load",
        "target": "science_b",
        "label": "shed_load:science_b"
      },
      {
        "index": 2,
        "command": "shed_load",
        "target": "heaters",
        "label": "shed_load:heaters"
      },
      {
        "index": 3,
        "command": "shed_load",
        "target": "transponder",
        "label": "shed_load:transponder"
      },
      {
        "index": 4,
        "command": "restore_load",
        "target": "science_a",
        "label": "restore_load:science_a"
      },
      {
        "index": 5,
        "command": "restore_load",
        "target": "science_b",
        "label": "restore_load:science_b"
      },
      {
        "index": 6,
        "command": "restore_load",
        "target": "heaters",
        "label": "restore_load:heaters"
      },
      {
        "index": 7,
        "command": "restore_load",
        "target": "transponder",
        "label": "restore_load:transponder"
      },
      {
        "index": 8,
        "command": "switch_to_backup_battery",
        "target": null,
        "label": "switch_to_backup_battery"
      },
      {
        "index": 9,
        "command": "reset_power_controller",
        "target": null,
        "label": "reset_power_controller"
      },
      {
        "index": 10,
        "command": "reconfigure_power",
        "target": "solar_a",
        "label": "reconfigure_power:solar_a"
      },
      {
        "index": 11,
        "command": "reconfigure_power",
        "target": "solar_b",
        "label": "reconfigure_power:solar_b"
      },
      {
        "index": 12,
        "command": "stabilize_attitude",
        "target": null,
        "label": "stabilize_attitude"
      },
      {
        "index": 13,
        "command": "switch_to_thruster_control",
        "target": null,
        "label": "switch_to_thruster_control"
      },
      {
        "index": 14,
        "command": "desaturate_wheels",
        "target": null,
        "label": "desaturate_wheels"
      },
      {
        "index": 15,
        "command": "recalibrate_star_tracker",
        "target": null,
        "label": "recalibrate_star_tracker"
      },
      {
        "index": 16,
        "command": "cross_validate_attitude",
        "target": null,
        "label": "cross_validate_attitude"
      },
      {
        "index": 17,
        "command": "switch_attitude_reference",
        "target": "star_tracker",
        "label": "switch_attitude_reference:star_tracker"
      },
      {
        "index": 18,
        "command": "switch_attitude_reference",
        "target": "gyro",
        "label": "switch_attitude_reference:gyro"
      },
      {
        "index": 19,
        "command": "switch_attitude_reference",
        "target": "sun_sensor",
        "label": "switch_attitude_reference:sun_sensor"
      },
      {
        "index": 20,
        "command": "recalibrate_imu",
        "target": null,
        "label": "recalibrate_imu"
      },
      {
        "index": 21,
        "command": "query_power_level",
        "target": "battery",
        "label": "query_power_level:battery"
      },
      {
        "index": 22,
        "command": "query_power_level",
        "target": "solar_a",
        "label": "query_power_level:solar_a"
      },
      {
        "index": 23,
        "command": "query_power_level",
        "target": "solar_b",
        "label": "query_power_level:solar_b"
      },
      {
        "index": 24,
        "command": "query_attitude",
        "target": null,
        "label": "query_attitude"
      },
      {
        "index": 25,
        "command": "query_thermal",
        "target": null,
        "label": "query_thermal"
      },
      {
        "index": 26,
        "command": "diagnostic_scan",
        "target": "power",
        "label": "diagnostic_scan:power"
      },
      {
        "index": 27,
        "command": "diagnostic_scan",
        "target": "attitude",
        "label": "diagnostic_scan:attitude"
      },
      {
        "index": 28,
        "command": "diagnostic_scan",
        "target": "comms",
        "label": "diagnostic_scan:comms"
      },
      {
        "index": 29,
        "command": "safe_mode",
        "target": null,
        "label": "safe_mode"
      },
      {
        "index": 30,
        "command": "resume_nominal",
        "target": null,
        "label": "resume_nominal"
      }
    ]
  }
}