{
  "model_type": "linear_q",
  "n_features": 37,
  "n_actions": 31,
  "learning_rate": 0.03,
  "gamma": 0.95,
  "gradient_clip": 5.0,
  "feature_names": [
    "bias",
    "battery_pct",
    "battery_drain_rate",
    "solar_a_output",
    "solar_b_output",
    "bus_voltage",
    "star_tracker_error",
    "gyro_error",
    "sun_sensor_error",
    "fuel_units",
    "signal_strength",
    "battery_temp",
    "episode_progress",
    "science_a_online",
    "science_b_online",
    "heaters_online",
    "transponder_online",
    "last_action_error",
    "last_action_refused",
    "last_action_diag",
    "attitude_mode_nominal",
    "attitude_mode_thruster",
    "attitude_mode_tumbling",
    "rw_status_nominal",
    "rw_status_degraded",
    "rw_status_failed",
    "transponder_status_nominal",
    "transponder_status_degraded",
    "transponder_status_offline",
    "link_bandwidth_high",
    "link_bandwidth_low",
    "link_bandwidth_none",
    "mission_status_nominal",
    "mission_status_degraded",
    "mission_status_critical",
    "mission_status_recovered",
    "mission_status_lost"
  ],
  "action_specs": [
    {
      "index": 0,
      "command": "shed_load",
      "target": "science_a",
      "label": "shed_load:science_a"
    },
    {
      "index": 1,
      "command": "shed_load",
      "target": "science_b",
      "label": "shed_load:science_b"
    },
    {
      "index": 2,
      "command": "shed_load",
      "target": "heaters",
      "label": "shed_load:heaters"
    },
    {
      "index": 3,
      "command": "shed_load",
      "target": "transponder",
      "label": "shed_load:transponder"
    },
    {
      "index": 4,
      "command": "restore_load",
      "target": "science_a",
      "label": "restore_load:science_a"
    },
    {
      "index": 5,
      "command": "restore_load",
      "target": "science_b",
      "label": "restore_load:science_b"
    },
    {
      "index": 6,
      "command": "restore_load",
      "target": "heaters",
      "label": "restore_load:heaters"
    },
    {
      "index": 7,
      "command": "restore_load",
      "target": "transponder",
      "label": "restore_load:transponder"
    },
    {
      "index": 8,
      "command": "switch_to_backup_battery",
      "target": null,
      "label": "switch_to_backup_battery"
    },
    {
      "index": 9,
      "command": "reset_power_controller",
      "target": null,
      "label": "reset_power_controller"
    },
    {
      "index": 10,
      "command": "reconfigure_power",
      "target": "solar_a",
      "label": "reconfigure_power:solar_a"
    },
    {
      "index": 11,
      "command": "reconfigure_power",
      "target": "solar_b",
      "label": "reconfigure_power:solar_b"
    },
    {
      "index": 12,
      "command": "stabilize_attitude",
      "target": null,
      "label": "stabilize_attitude"
    },
    {
      "index": 13,
      "command": "switch_to_thruster_control",
      "target": null,
      "label": "switch_to_thruster_control"
    },
    {
      "index": 14,
      "command": "desaturate_wheels",
      "target": null,
      "label": "desaturate_wheels"
    },
    {
      "index": 15,
      "command": "recalibrate_star_tracker",
      "target": null,
      "label": "recalibrate_star_tracker"
    },
    {
      "index": 16,
      "command": "cross_validate_attitude",
      "target": null,
      "label": "cross_validate_attitude"
    },
    {
      "index": 17,
      "command": "switch_attitude_reference",
      "target": "star_tracker",
      "label": "switch_attitude_reference:star_tracker"
    },
    {
      "index": 18,
      "command": "switch_attitude_reference",
      "target": "gyro",
      "label": "switch_attitude_reference:gyro"
    },
    {
      "index": 19,
      "command": "switch_attitude_reference",
      "target": "sun_sensor",
      "label": "switch_attitude_reference:sun_sensor"
    },
    {
      "index": 20,
      "command": "recalibrate_imu",
      "target": null,
      "label": "recalibrate_imu"
    },
    {
      "index": 21,
      "command": "query_power_level",
      "target": "battery",
      "label": "query_power_level:battery"
    },
    {
      "index": 22,
      "command": "query_power_level",
      "target": "solar_a",
      "label": "query_power_level:solar_a"
    },
    {
      "index": 23,
      "command": "query_power_level",
      "target": "solar_b",
      "label": "query_power_level:solar_b"
    },
    {
      "index": 24,
      "command": "query_attitude",
      "target": null,
      "label": "query_attitude"
    },
    {
      "index": 25,
      "command": "query_thermal",
      "target": null,
      "label": "query_thermal"
    },
    {
      "index": 26,
      "command": "diagnostic_scan",
      "target": "power",
      "label": "diagnostic_scan:power"
    },
    {
      "index": 27,
      "command": "diagnostic_scan",
      "target": "attitude",
      "label": "diagnostic_scan:attitude"
    },
    {
      "index": 28,
      "command": "diagnostic_scan",
      "target": "comms",
      "label": "diagnostic_scan:comms"
    },
    {
      "index": 29,
      "command": "safe_mode",
      "target": null,
      "label": "safe_mode"
    },
    {
      "index": 30,
      "command": "resume_nominal",
      "target": null,
      "label": "resume_nominal"
    }
  ],
  "weights": [
    [
      0.15090454304159268,
      0.08348133226973646,
      0.008343916597897679,
      0.32306504675288533,
      0.1580798524576822,
      0.15006617755264726,
      -0.09657854097009536,
      -0.10695556889260306,
      -0.1217522368638642,
      0.3266542194323072,
      0.06617675080223243,
      0.0807453162406562,
      -0.1270117847228973,
      0.21124466238769216,
      0.13263431794206906,
      0.23613236252379682,
      0.10461065385010324,
      0.008954178849140114,
      0.01383315991218953,
      0.0019563919033182874,
      0.32919034753514764,
      0.04107695416111438,
      -0.2082132890461455,
      0.10139733543412706,
      0.014662402052792355,
      0.0194012824133597,
      0.06317332627585119,
      0.03148910930787755,
      0.05587214342411887,
      0.06863569306706181,
      0.02794485150400062,
      0.05970556668015479,
      0.034331774647459776,
      0.30398419452797404,
      -0.20048538921752204,
      -0.0058808257436134695,
      0.003607999463635719
    ],
    [
      0.16793869784036716,
      0.1663468042724159,
      0.005665043524642354,
      0.09070004248186972,
      0.15219761100635068,
      0.1752716526971594,
      -0.004309824504204873,
      -0.03258042766688437,
      -0.018411965970620038,
      0.3279776720621749,
      0.11395643161487193,
      0.1948932085803261,
      -0.16690193758054211,
      0.049732690928958344,
      0.2794601322833602,
      0.08154839308471908,
      0.13978481797736578,
      -0.006960309306789905,
      -0.022266691854199674,
      0.03299661192411306,
      0.23867400179870846,
      0.01438699446543304,
      -0.0735578912766705,
      0.21072711558849924,
      0.010942016708206654,
      -0.04459186675067395,
      0.07983501589872784,
      0.05829228511508312,
      0.033868958966946625,
      0.08474697396687832,
      0.06558800293159203,
      0.03422681908931126,
      0.010750095689850244,
      0.34081892546258524,
      -0.18365589633793003,
      0.0029425770905533756,
      0.009861918789332682
    ],
    [
      0.08125996516598062,
      -0.017236893835560232,
      0.021888287168272236,
      0.212664730594429,
      0.297422992710708,
      0.07223169551677604,
      -0.27153723074337505,
      -0.297355337256806,
      -0.30167728724789705,
      0.25861200906603304,
      0.16209482669102387,
      0.13920438027297713,
      -0.3515776378810605,
      0.07437921765911033,
      0.3308822017150376,
      0.2160470841433523,
      0.050408362378964455,
      0.00766767652883025,
      0.03696330204216648,
      0.017020227313633344,
      0.19252491882457626,
      0.0833327832240879,
      -0.20998645767373336,
      0.023868860056900098,
      0.06312141324542225,
      -0.0023119051294695457,
      0.20248766483763023,
      -0.18510912832231333,
      0.04027314649828477,
      0.20866256487464996,
      -0.17796579558405892,
      0.04086135721063831,
      0.03829985443079284,
      0.3621095532338303,
      -0.33974206468273427,
      0.0013268244741278384,
      0.009061958510501905
    ],
    [
      0.17852974342764127,
      0.09677612847394045,
      0.026132699650127048,
      0.1797274978778852,
      0.18729545382007154,
      0.17933387916575888,
      -0.07189350471342316,
      -0.08099052164238489,
      -0.08746154762896992,
      0.5228147852820831,
      0.0655047576946899,
      0.12403498912294172,
      -0.3531354999264407,
      0.10668836219313178,
      0.1179600833493283,
      0.14004932214933474,
      0.15167738814131684,
      -0.003198926955353132,
      -0.06480670187582235,
      0.07506675179021699,
      0.3309244330829998,
      0.045354263771321096,
      -0.21923204212266736,
      0.1307932791918597,
      0.003327259875770266,
      0.04087737625386053,
      0.01918461422510503,
      0.12014779080491227,
      0.020351421013737755,
      0.023496873309052854,
      0.11755948028901463,
      0.030382368622356038,
      -0.0037272918086034834,
      0.47715474494585935,
      -0.2898490461067163,
      -0.008282306768876688,
      -0.007956247665036631
    ],
    [
      0.051676594155981914,
      0.027220646071880322,
      0.01616036371754516,
      0.06518246273408068,
      0.14317080050813244,
      0.06534410529723655,
      -0.03457185440604889,
      -0.047517760268551756,
      -0.04523923099062949,
      0.14669622768711457,
      0.08341669938113394,
      0.046539874768463704,
      -0.30372566894455866,
      -0.2533586152363123,
      0.09294451839657791,
      -0.03356228138348441,
      0.12386228848970471,
      0.005438758168040625,
      -0.0017006230516481476,
      0.06493865416135465,
      0.14440968452669548,
      0.008983881360624174,
      -0.1012853301977069,
      0.047315440444769874,
      0.0010802381621259497,
      0.02930086746669054,
      0.09416301052731202,
      0.028001013358840574,
      -0.061641237420377276,
      0.08814912614567466,
      0.020314803818425452,
      -0.06559642420618167,
      -0.003960187449451765,
      0.21269610169548345,
      -0.1725814373001327,
      0.003850438834002467,
      0.009130301526826758
    ],
    [
      0.17988349651593966,
      0.15473154818315718,
      0.026185559909786126,
      0.22779121371316222,
      0.21687806597497153,
      0.17691654962197795,
      -0.10496521483181176,
      -0.1203481137789814,
      -0.12429757907923115,
      0.3258607706353712,
      0.12355132846136407,
      0.1425863161814328,
      -0.1272457473056095,
      0.15299011688364667,
      -0.1222211720663285,
      0.26995106452389944,
      0.004467077685056039,
      0.008195542751034459,
      0.019618789424634662,
      0.02756394610605166,
      0.2587946278655825,
      0.060649235057908174,
      -0.13959112208384855,
      0.23483245041802062,
      -0.033688778893703475,
      -0.008104767408843014,
      0.09603957022430686,
      0.02702615057796479,
      0.06275366854637436,
      0.10261877363560215,
      0.022398487420048668,
      0.046358495763033795,
      0.01695308270217641,
      0.33724711018446984,
      -0.16601115436310274,
      -0.007076513825122517,
      0.006530209570507742
    ],
    [
      0.19155163867285488,
      0.15401786024298103,
      0.0036135419129412084,
      0.22693643855753395,
      0.23657150448306372,
      0.17048532201146172,
      -0.057794336663468775,
      -0.0590460018844337,
      -0.05978517275955314,
      0.2810401918354323,
      0.09855213010297101,
      0.08926617021204009,
      -0.12025792299559554,
      0.10120474926515612,
      0.33471280534578035,
      0.003203023962169044,
      0.12348125568226638,
      0.0017287433633192337,
      -0.15539246816298424,
      0.025013461165433615,
      0.32383982984987136,
      0.07314013463518076,
      -0.2171369495456917,
      0.14841688105743633,
      0.09824939134872479,
      -0.055804621941134336,
      0.08310821410642327,
      0.03324002497102977,
      0.07239724664990055,
      0.08533214794096064,
      0.025355734995919824,
      0.0627383651856043,
      0.06607790605750255,
      0.3225530331435865,
      -0.22414211376751908,
      0.005983409009844435,
      -0.006553065755731022
    ],
    [
      0.13178011997980327,
      0.11537385255761805,
      0.013593031071879438,
      0.2926394035434042,
      0.21980624931743137,
      0.13148688511176604,
      -0.13833491320086003,
      -0.15022833662806923,
      -0.13721753857389757,
      0.3082608812220728,
      -0.043151603987410206,
      0.08474212555190691,
      -0.25518477357711794,
      0.007045198168817879,
      0.024204517880351564,
      0.09669008152346412,
      -0.09224904228761499,
      0.0022505576868892072,
      0.010466975675493616,
      0.22082691957783596,
      0.25409244112509016,
      0.12271385335940194,
      -0.24092878850608176,
      0.07482678916985076,
      -0.00315936383365653,
      0.07301794254938736,
      -0.08751941492157295,
      0.015322441283972341,
      0.21607340225220206,
      -0.09385984842723052,
      0.015344170198170502,
      0.2276815520377124,
      0.02284525971063895,
      0.4190873880543904,
      -0.32560489686334343,
      -0.008549078006870235,
      -0.005187224830934602
    ],
    [
      0.1466512281060407,
      -0.0515567050298068,
      0.009853986117000118,
      0.16760403046524103,
      0.14908034896826133,
      0.15988078179799017,
      -0.011265672061860342,
      -0.03764567010532534,
      -0.017606921170779336,
      0.3421798546772822,
      -0.025110711822949737,
      0.16458063833483552,
      -0.15237306652549965,
      0.13279339754571323,
      0.0654267901831528,
      0.2291475541009381,
      0.009644048423187404,
      -0.0013695636400472225,
      0.04435324385091056,
      0.0926977052910708,
      0.26501616487548996,
      -0.05902629857744797,
      -0.0560726321391987,
      0.23636899918730106,
      0.08358794892619552,
      -0.174488309793641,
      -0.06145284642810747,
      0.06485917105305784,
      0.1412526270188547,
      -0.0515692403553791,
      0.059515029122033075,
      0.1484757504236994,
      0.03202638981414051,
      0.2898077688706334,
      -0.15934857373783684,
      -0.004688714553129605,
      -0.009208236201718647
    ],
    [
      0.17345171165449297,
      0.08595939646609728,
      -0.002514950483357506,
      0.15739245449350325,
      0.15668204980614506,
      0.1739451947569241,
      -0.03719134753485629,
      -0.04885242734635799,
      -0.040748407780492164,
      0.4273088762303523,
      0.0571902223836461,
      0.06502783558420437,
      -0.17593026605612086,
      0.14329392040082256,
      -0.007799427052686051,
      0.2676055640352309,
      0.05214553928735537,
      0.0026887901259311908,
      0.008005519406202621,
      0.024743713435264575,
      0.38788105397238104,
      0.06669497333230008,
      -0.28099174144553696,
      0.1377232077515943,
      0.024636951258223874,
      0.0024313923776288692,
      0.0822909129282865,
      -0.043054217282177766,
      0.12511014401990656,
      0.07429582777740541,
      -0.04364268882649978,
      0.12471467732358565,
      0.058976400564335785,
      0.3716843274568425,
      -0.2845170238165302,
      -0.0037601519184304634,
      -0.0038998920424154647
    ],
    [
      0.17358299707614333,
      0.1594177747191809,
      -0.005505387042686119,
      -0.14288952209660888,
      0.1100794826898134,
      0.1578556410643789,
      0.015928445422000326,
      0.0015283885049907952,
      0.015717645935760152,
      0.27896290639842397,
      0.13536403019308108,
      0.20591651263691185,
      -0.08511276423198784,
      0.2644267198424352,
      0.18879703635013861,
      0.14461288022523308,
      0.1950216926406532,
      0.006692278666604453,
      0.005394812338430286,
      -0.06154048323671905,
      0.21247622214749637,
      0.01455151845217835,
      -0.04837697059304333,
      0.2654002818766032,
      0.027067506908582645,
      -0.11057497893310003,
      0.14106157755086074,
      0.04957847057323488,
      -0.03611424763491339,
      0.1355639949997416,
      0.04404188328181037,
      -0.022384234407023584,
      0.022288966006749088,
      0.3312059057824369,
      -0.20503533441793387,
      0.006825379637015129,
      0.007410756424954966
    ],
    [
      0.1447323269097036,
      0.06408502746426538,
      -0.006263655243844432,
      0.17003964603455285,
      -0.013038477543743241,
      0.13704130699891526,
      0.012631571845923914,
      -0.005736724231026132,
      0.005874506331799116,
      0.3534950688321984,
      0.13197661448755457,
      0.2556419791622367,
      -0.20974995342532407,
      -0.03573496982662626,
      0.025178803519375764,
      0.2391150285612797,
      0.1518007338845595,
      -0.0005071274520562791,
      0.05576400972094405,
      0.2558800897921118,
      0.21878883762955176,
      -0.07739727578189098,
      -0.014593003759732454,
      0.18694752861220065,
      0.03594862519484581,
      -0.10095606233829531,
      0.1078462042222207,
      0.004736452763671803,
      0.009929769441345594,
      0.11910798696644821,
      0.009235352525047228,
      0.02028439071324932,
      0.058401726976744464,
      0.45956563177807475,
      -0.3615933416650418,
      -0.0022096705787910008,
      -0.0034773049174730095
    ],
    [
      0.09160786717490171,
      0.21345222364319447,
      -0.0036853488711914226,
      0.13257092161747058,
      0.0629125734395229,
      0.08724157415275038,
      0.035521394954669626,
      -0.012625390995285228,
      -0.007110681080949742,
      0.41610765679170897,
      0.07860225178116319,
      0.05982624277490349,
      -0.21330707393113854,
      0.1686048843098388,
      -0.018703426339065743,
      0.11259133922922657,
      0.08130033622106131,
      0.007856594728110155,
      0.0041094538576926225,
      0.05924731234161789,
      0.3376273822507636,
      -0.04004609402104005,
      -0.23778411386138118,
      0.09945004644233202,
      0.07248064153544646,
      -0.09398849955831946,
      0.140228801302545,
      -0.056883808317266416,
      0.004818708767135034,
      0.1426715398942427,
      -0.0596532641904947,
      -0.007639533868963731,
      0.0562279814534019,
      0.24154477937210125,
      -0.20488079585894722,
      0.0007039962845954185,
      0.0031859897860869978
    ],
    [
      0.14573284856468632,
      0.13384816312336,
      0.00025824453944910933,
      0.12737555815412155,
      0.14060799957780462,
      0.15837055661307592,
      -0.013702689791864404,
      -0.00847427124904303,
      -0.006509126203775412,
      0.2403659342204309,
      0.07322090705163586,
      0.1450982918572745,
      0.013416448794655032,
      0.06044515353413012,
      0.1314605093335804,
      0.2341137210511758,
      0.10697482811823936,
      -0.007051498542461851,
      -0.018184777860826853,
      0.04329612534385921,
      0.21065249053212703,
      -0.04585862097640581,
      -0.022689067132408237,
      0.13499802742334965,
      -0.004939528360001568,
      0.014382049547057789,
      0.07666082709154132,
      0.02702701580790602,
      0.053898984697047805,
      0.0731478375210205,
      0.022806119739136817,
      0.05740863821439819,
      0.0021282631058843803,
      0.2783865790945632,
      -0.13187468438547748,
      0.009562514735140538,
      0.008725086819074327
    ],
    [
      0.16046523030828838,
      0.1610132781292365,
      0.006144909764947758,
      0.16139989246159755,
      0.19851021504916094,
      0.16314366092534868,
      -0.02624649623086809,
      -0.011281819045441243,
      -0.029768827718442657,
      0.40195564228099473,
      0.10356284214794399,
      0.12214413013313968,
      -0.24789242160436845,
      0.2797357475453984,
      0.26090857301689935,
      0.033952652500368746,
      0.13769447643765326,
      0.0040667407758814885,
      0.00020547429732910408,
      0.18407302810807427,
      0.27468599574551766,
      0.10289960306407665,
      -0.22717914699388822,
      -0.007890607192839717,
      0.14567029499280307,
      0.027223602417162342,
      0.013554337919673053,
      0.0849941324356337,
      0.05758157907786026,
      0.027544814187479214,
      0.07814975714542483,
      0.06627469899378721,
      0.04581203543074326,
      0.3668945305276451,
      -0.23488040472385238,
      0.004260471315938475,
      0.008031331261978717
    ],
    [
      0.1762316170523714,
      0.1317111057095784,
      0.0015883245975558359,
      0.1870493583244242,
      0.13876133352656156,
      0.17753152745381653,
      0.0695276826812772,
      -0.005474909375084807,
      -0.013041280530017187,
      0.2977998548654244,
      0.09551287398142078,
      0.1508871883988715,
      -0.005145726020161488,
      0.07822708213633141,
      0.14965916887595826,
      0.17600067046025758,
      0.13700001337568246,
      -0.002533014299699268,
      0.03987792858287075,
      0.0034637919123763766,
      0.31462675797280915,
      0.0118887795507554,
      -0.12895494047471895,
      0.18968562236175104,
      0.041551856358836826,
      -0.036612520278180016,
      0.10968562953620838,
      0.01777863586484619,
      0.0476244709889431,
      0.12374946903215144,
      0.0160214007041665,
      0.044331428935759344,
      0.038556750740144495,
      0.3441897943795603,
      -0.2102502818084482,
      -0.0005563182510634306,
      -0.0031267429468414144
    ],
    [
      0.19812994935659323,
      0.14799169627406553,
      0.025005156672847088,
      0.13744675849576235,
      0.2646213618920294,
      0.19618679779053827,
      0.024175308170392526,
      -0.03630220761233794,
      -0.032917574620996384,
      0.2565330253728269,
      0.1108374300556425,
      0.11655587691795212,
      -0.27381457415638527,
      0.06725971480546675,
      0.35431028784925295,
      0.06817450467218025,
      0.07095381724771029,
      -0.0072080787200055575,
      0.003917442460675138,
      0.004937004922558947,
      0.3098038449048798,
      -0.0030714202132567517,
      -0.12111438956029139,
      0.06081021733617657,
      0.10932095324154438,
      0.03634787686162934,
      0.17667776450436312,
      -0.1076637684413303,
      0.13468697275584063,
      0.17216797520728744,
      -0.10838208534095745,
      0.1331733633176404,
      0.07372205973209867,
      0.28080937394575833,
      -0.1562116990826356,
      -0.007482523964829271,
      6.79149522223605e-05
    ],
    [
      0.1559150138171645,
      0.23600826594121013,
      0.0035428038681120256,
      0.2867228017657823,
      0.2687760879186324,
      0.16711574720488684,
      -0.06178387394250094,
      -0.03634913564020988,
      -0.044512257249785206,
      0.18652873510545356,
      0.08892807319433296,
      0.11557307550570922,
      -0.14297174210576008,
      0.09304784835360766,
      0.17944147813253572,
      0.2433944012844968,
      0.12053097927317435,
      -0.0021695780858042094,
      0.03025851095848145,
      0.062022581919246596,
      0.289693823045217,
      0.0663364242519309,
      -0.19118439002092913,
      0.14203316817232972,
      0.055533123711947394,
      -0.05852801635351188,
      0.06931197113185045,
      0.059815128224852104,
      0.041101394546338106,
      0.068617432290844,
      0.05628132799087579,
      0.03581318960578055,
      0.0422437471400709,
      0.3592278626006768,
      -0.2506822182089542,
      -0.005348463420661944,
      0.008398402189849575
    ],
    [
      0.08935759912922864,
      0.00490850306462522,
      0.01234799279728801,
      0.16287289154620144,
      0.16919654636662465,
      0.08969093569655859,
      -0.07040052170044,
      -0.09737791172068813,
      -0.09249438525361327,
      0.35622610798214666,
      0.1546034218458564,
      0.07865627739827169,
      -0.17244593750359452,
      -0.08350258800294913,
      0.1695211631464195,
      0.15168075002725362,
      0.0974348727083357,
      0.0028915127872543335,
      0.006356119531244435,
      -0.03967643435761348,
      0.3038975306141177,
      -0.04529263348131225,
      -0.17330859931347944,
      0.19817331947625672,
      0.036251099414474304,
      -0.15730015779207124,
      0.1971163712910752,
      -0.11933701170175545,
      0.010523911589742335,
      0.19229528883958144,
      -0.11947917596530877,
      0.0206268107073799,
      0.05078369119100151,
      0.26379272188717107,
      -0.2461502281370791,
      -0.0015888630803942844,
      0.0036513336593446445
    ],
    [
      0.13763631193263912,
      0.21265469448479668,
      0.022033233172662692,
      0.026918366065059245,
      0.18525181158034063,
      0.1531818786566815,
      -0.10435165381056492,
      -0.06555603957138298,
      -0.08085202815237173,
      0.4005072952209679,
      0.09099842896643594,
      0.1182751276801388,
      -0.26322156780483796,
      0.18558806722448473,
      0.059157193097855776,
      0.231271775979895,
      0.03550554075947342,
      0.0033058850551273018,
      0.0082048102028112,
      0.11510558027638768,
      0.3241032671881506,
      -0.00057463063059667,
      -0.1782433422688193,
      0.19961815242038686,
      0.06215045296308319,
      -0.1430161487486057,
      0.12450694183248992,
      -0.10182670196357013,
      0.13449593411072466,
      0.13129498322498964,
      -0.09983945399475838,
      0.13545617132341745,
      0.00481666283156811,
      0.38148335594164157,
      -0.2436125695778095,
      0.004926168839278195,
      -0.009362126244332324
    ],
    [
      0.17885713334641845,
      0.12610828006414251,
      0.0029560710016518737,
      0.21767839768104036,
      0.21286959367651925,
      0.16551113465733225,
      -0.05122419643488875,
      -0.04564045218889224,
      -0.04551284477841004,
      0.2841364819102623,
      0.14835914132146583,
      0.12994280405894723,
      -0.0700579046545354,
      0.12077503622404007,
      0.11362911242532162,
      0.18438980959100998,
      0.12049896305548109,
      -0.0005307189828580878,
      -0.0025457122115002525,
      -0.013410007236389881,
      0.2843297619897309,
      0.024636491020514614,
      -0.13431234864267136,
      0.18688263123543836,
      0.08154424037626459,
      -0.09780016729181285,
      0.09238377862905188,
      0.018286757705930204,
      0.05174143717666614,
      0.0783020174474836,
      0.035875302445181965,
      0.056184668510591076,
      0.0360900808453751,
      0.33020989497597825,
      -0.18103327721898493,
      -0.004553706745062633,
      0.009153792106175783
    ],
    [
      0.17592378873809086,
      0.16500731911285169,
      -0.0011131870283124393,
      0.03656372687565683,
      0.2326676695134192,
      0.16446318022395873,
      0.062355577099706884,
      0.031063076856566434,
      0.01781340763569596,
      0.26404343027984034,
      0.07461907114011627,
      0.16373963494313745,
      -0.1648475406799892,
      0.06224294941524208,
      0.3315319953568199,
      0.3284576685969835,
      0.09888603058888808,
      -0.0014012383200525877,
      0.01990939105051969,
      -0.0486253975778427,
      0.13639651740353817,
      0.13304664192704357,
      -0.09137902886364087,
      0.09743551758664955,
      0.010890960197749591,
      0.079314118592692,
      0.06054468653580786,
      0.03020450765564582,
      0.07301916558009583,
      0.06963366273043908,
      0.025393829449426072,
      0.0697282325981059,
      0.05505506053865721,
      0.3066050972771571,
      -0.19677741453877381,
      -0.00932272561167331,
      0.001051892868372293
    ],
    [
      0.1577678372392232,
      0.2679409958052486,
      0.012809968953519168,
      0.1334261416100678,
      0.3132321112361238,
      0.15279841195903274,
      -0.049337289894626796,
      -0.054613227080705665,
      -0.054796803098039366,
      0.3324424457337373,
      0.07916614060220009,
      0.21154566455325804,
      -0.25937867528443176,
      0.17135846342058664,
      0.0451867387038505,
      0.14846682895427152,
      0.03172851395975928,
      -0.0075767052501811705,
      0.016314978757241177,
      0.021353605105161204,
      0.30439610514431825,
      0.03373713968273047,
      -0.1733221212312922,
      0.08741450996585032,
      0.03129156083068758,
      0.0263857896447388,
      0.010275336707408898,
      0.011458253132838776,
      0.14183449581570928,
      0.013735651097986294,
      0.0016962886543587835,
      0.15011785523268564,
      0.12825450848584638,
      0.43713375937907023,
      -0.4031926307279337,
      0.003066531041848017,
      0.009819113021645417
    ],
    [
      0.1533558640914641,
      0.14390427359681784,
      0.01593292897745397,
      0.1391839436427137,
      0.2348733267135309,
      0.1516488215536105,
      -0.04101276876693128,
      -0.059245521335002015,
      -0.06178278487409801,
      0.32195033098783293,
      0.07777172605168103,
      0.14798574216739993,
      -0.08994349667143473,
      0.15891571051422276,
      0.1758369956285435,
      0.26214428238976284,
      0.10652932197141865,
      0.008914041669121313,
      0.00711302464298593,
      -0.034061585162712946,
      0.27593534169278744,
      0.08045420979006716,
      -0.20095429669828052,
      0.042628704428560205,
      0.10210287764686847,
      -0.0014171744929313175,
      0.05592714743514772,
      0.03371871614577191,
      0.07075351170102374,
      0.044166276782741,
      0.02723084436404122,
      0.08025107070560851,
      0.013324412159091982,
      0.4684886808763539,
      -0.3364889052474397,
      0.005905623360816422,
      0.0009608966832618457
    ],
    [
      0.16775439187441374,
      0.09947339414477256,
      -0.0013317213955939453,
      0.30537575417815693,
      0.23825277157227748,
      0.16888566726601206,
      -0.09201307079154449,
      -0.05205860209053569,
      -0.05941899054793536,
      0.3620765772708218,
      0.12557867698323885,
      0.1288258353180616,
      -0.16184562117366166,
      0.15065338464550335,
      0.22064004728331152,
      0.13950902595885292,
      0.09208306569441257,
      0.009932407111260299,
      0.001550525311368562,
      0.09432639329581961,
      0.26900832509467765,
      -0.0243338241515939,
      -0.07943402133323217,
      0.1626407901175582,
      0.022054133870838776,
      0.004709125664819874,
      0.06420144806334463,
      0.02527091095718833,
      0.09201584859950389,
      0.0593279859752633,
      0.007910839519675734,
      0.09382868101005436,
      0.034814011253961816,
      0.2978971541699447,
      -0.15343234879274478,
      0.0024438919018548062,
      -0.002583127507977348
    ],
    [
      0.18230636960333468,
      0.16582736554683472,
      0.0018414321032531942,
      0.18821898046806057,
      0.22818366962752215,
      0.17414623849424754,
      -0.02396820976563079,
      -0.026215595061431667,
      -0.026487933425617675,
      0.2197836456315337,
      0.0997862901806295,
      0.15418698247818283,
      -0.007302365757822981,
      0.1440163256642308,
      0.09723862925091345,
      0.18287743885764746,
      0.09843580482707348,
      0.008084416942642671,
      0.01090684399599541,
      0.0006453384398915326,
      0.2352323558988776,
      0.03861804384724815,
      -0.09826975523533935,
      0.14878010945475773,
      0.07747248151616225,
      -0.032435009955615705,
      0.08991582468451018,
      -0.0030880452832021017,
      0.08140628901898214,
      0.09661436417864491,
      0.0002207446431919842,
      0.0758725114260427,
      -0.0050588220401566785,
      0.38915366918077954,
      -0.19449300658321997,
      -0.009178019332310184,
      0.001246865368259695
    ],
    [
      0.06605555312509614,
      0.15373113984310266,
      0.056393068576429485,
      0.25825599311109515,
      0.19933776445071721,
      0.06247016230235315,
      -0.13874268244619806,
      -0.17075498104951173,
      -0.17293356943048038,
      0.40767216431232967,
      0.03474319307905249,
      0.11722588217628682,
      -0.2657793199327582,
      -0.03440024453080972,
      0.2073744481420583,
      0.06183675470495181,
      -0.10819987239087134,
      -0.005294981532272867,
      0.023165185108802805,
      0.16160707505168154,
      0.39091923334583706,
      -0.11037368137864376,
      -0.22741768550728006,
      -0.0046852851309246955,
      0.12335077670504666,
      -0.07443654437715286,
      0.09436477434544671,
      -0.211468423229914,
      0.16888680742566262,
      0.09334584728364598,
      -0.2075790254558839,
      0.160328403019507,
      0.033624707256807544,
      0.5114665920108876,
      -0.4737330103606564,
      -0.008914701379528808,
      7.848127109817866e-05
    ],
    [
      0.15711511394675892,
      0.1580883550448567,
      -0.0021605073845393824,
      0.191687989753791,
      0.13953552246389067,
      0.16411610851547195,
      0.016498810855352007,
      -0.005720959299464453,
      0.007857136553198541,
      0.4176456323212713,
      0.05655009727177502,
      0.18854604592122645,
      -0.2855429825436114,
      0.26268943777962844,
      0.10395923072877979,
      0.24748374662221892,
      0.09073828474704894,
      0.005123595334920402,
      -0.009585971181834319,
      0.03511522970963246,
      0.2824148611571408,
      0.03759104359300129,
      -0.16576421256732743,
      0.05072471555473062,
      0.062390037930179214,
      0.04905208960206793,
      0.015311337053504653,
      0.02024401935599068,
      0.1157615480150144,
      0.010790644911118778,
      0.013765807650017874,
      0.11260458461660326,
      0.0627968920206149,
      0.45147701239601684,
      -0.3344861066750585,
      -0.00662515911577282,
      0.005697386304190881
    ],
    [
      0.20767357083996296,
      0.1408121421619237,
      0.017103008482117554,
      0.20154812500698988,
      0.3189879949532095,
      0.2155539945104375,
      -0.0002322716367144095,
      -0.011266949377090508,
      -0.03155065601074058,
      0.28674247612426434,
      0.06724465073342693,
      0.15655193700703418,
      -0.13746657284424998,
      0.13466579754042915,
      0.09075143240815821,
      0.16529964137036537,
      0.1265685713359796,
      0.005292783838716973,
      0.004471772975862823,
      -0.013355317003026794,
      0.26891203238958983,
      0.011779455673634016,
      -0.06308528179641096,
      0.07556360591798096,
      0.15376799471567001,
      -0.006420692982553723,
      0.048414685566376764,
      0.07410747399859557,
      0.09409419069515128,
      0.03673309843932611,
      0.06150936644098805,
      0.09082850951150508,
      0.0023210410215881456,
      0.40555996710049314,
      -0.19128975307886034,
      0.007910849012103134,
      -0.007359534131229743
    ],
    [
      0.174822338631316,
      0.14906818689376553,
      -0.009747907183474954,
      0.2032709647606453,
      0.13300705559349066,
      0.1717340567014943,
      0.03763495446361496,
      0.011199408308566633,
      0.014313628456451762,
      0.41691756488592,
      0.07510510936646375,
      0.11333229108766764,
      -0.16454955215214134,
      -0.018551388803976755,
      0.18996888018601718,
      0.24709507922745466,
      0.12321380312364265,
      -0.008083906611253524,
      0.032310887722610065,
      -0.017889117339797988,
      0.3536698407291904,
      -0.16337348574734528,
      -0.011052231854826006,
      0.10391204415787879,
      0.055240434010521935,
      0.015500159208125442,
      0.0850894004281023,
      0.0527368095682197,
      0.04124475667950363,
      0.09682588875889246,
      0.054495175037553106,
      0.03733961228057858,
      0.041904956445426245,
      0.13566080304482928,
      0.002292043379381376,
      -0.00188022551154228,
      -0.005246623879787831
    ],
    [
      0.10791673270643501,
      0.03549165856461783,
      -0.0024319937440232618,
      0.20289906340864378,
      0.15824265822399383,
      0.10846990256906802,
      -0.09138878020378788,
      -0.08786777473418554,
      -0.09080830999520956,
      0.3120147074543335,
      0.139514807077943,
      0.10878512148873751,
      -0.07361195149453559,
      0.055136910602176,
      0.2683879863095432,
      0.05399311256807281,
      0.1646109545684429,
      0.00430797227299308,
      -0.012191914933725005,
      0.039110161587026196,
      0.26729211026226984,
      0.05685594001842419,
      -0.19835474232236272,
      0.1076145825386796,
      0.008059154372868596,
      -0.013250240907542465,
      0.12363824260800783,
      -0.005225219889141194,
      -0.019531267456422054,
      0.13398539008485352,
      0.007900613356908698,
      -0.009334921356445671,
      -0.11939988963284652,
      0.5905460434378977,
      -0.35376781086246434,
      -0.0012789455524483788,
      0.005769000339102029
    ]
  ],
  "bias": [
    0.15442788774492944,
    0.16938685172697912,
    0.07482146943378633,
    0.17471987028492164,
    0.05482387739112188,
    0.1809389429606052,
    0.18194551980391424,
    0.13231026133056417,
    0.1551888127665872,
    0.16787176305313511,
    0.16839303197617217,
    0.14132146095153003,
    0.08191328547341581,
    0.15441184144024334,
    0.17011514119195512,
    0.18043495787286085,
    0.20217451204569759,
    0.15332247570024565,
    0.08644748360186377,
    0.14367471916797045,
    0.17556853607179057,
    0.17358421910335745,
    0.16125267015776393,
    0.16130921567785192,
    0.17648897030384889,
    0.18221710834394492,
    0.06090632802835577,
    0.1595578613530113,
    0.21537199682311386,
    0.18027714582153762,
    0.1167491491049987
  ],
  "config": {
    "episodes": 80,
    "max_steps": 50,
    "seed": 7,
    "learning_rate": 0.03,
    "gamma": 0.95,
    "gradient_clip": 5.0,
    "epsilon_start": 1.0,
    "epsilon_end": 0.05,
    "epsilon_decay_episodes": 180,
    "eval_every": 20,
    "eval_episodes": 5,
    "n_features": 37,
    "n_actions": 31,
    "feature_names": [
      "bias",
      "battery_pct",
      "battery_drain_rate",
      "solar_a_output",
      "solar_b_output",
      "bus_voltage",
      "star_tracker_error",
      "gyro_error",
      "sun_sensor_error",
      "fuel_units",
      "signal_strength",
      "battery_temp",
      "episode_progress",
      "science_a_online",
      "science_b_online",
      "heaters_online",
      "transponder_online",
      "last_action_error",
      "last_action_refused",
      "last_action_diag",
      "attitude_mode_nominal",
      "attitude_mode_thruster",
      "attitude_mode_tumbling",
      "rw_status_nominal",
      "rw_status_degraded",
      "rw_status_failed",
      "transponder_status_nominal",
      "transponder_status_degraded",
      "transponder_status_offline",
      "link_bandwidth_high",
      "link_bandwidth_low",
      "link_bandwidth_none",
      "mission_status_nominal",
      "mission_status_degraded",
      "mission_status_critical",
      "mission_status_recovered",
      "mission_status_lost"
    ],
    "action_space": [
      {
        "index": 0,
        "command": "shed_load",
        "target": "science_a",
        "label": "shed_load:science_a"
      },
      {
        "index": 1,
        "command": "shed_load",
        "target": "science_b",
        "label": "shed_load:science_b"
      },
      {
        "index": 2,
        "command": "shed_load",
        "target": "heaters",
        "label": "shed_load:heaters"
      },
      {
        "index": 3,
        "command": "shed_load",
        "target": "transponder",
        "label": "shed_load:transponder"
      },
      {
        "index": 4,
        "command": "restore_load",
        "target": "science_a",
        "label": "restore_load:science_a"
      },
      {
        "index": 5,
        "command": "restore_load",
        "target": "science_b",
        "label": "restore_load:science_b"
      },
      {
        "index": 6,
        "command": "restore_load",
        "target": "heaters",
        "label": "restore_load:heaters"
      },
      {
        "index": 7,
        "command": "restore_load",
        "target": "transponder",
        "label": "restore_load:transponder"
      },
      {
        "index": 8,
        "command": "switch_to_backup_battery",
        "target": null,
        "label": "switch_to_backup_battery"
      },
      {
        "index": 9,
        "command": "reset_power_controller",
        "target": null,
        "label": "reset_power_controller"
      },
      {
        "index": 10,
        "command": "reconfigure_power",
        "target": "solar_a",
        "label": "reconfigure_power:solar_a"
      },
      {
        "index": 11,
        "command": "reconfigure_power",
        "target": "solar_b",
        "label": "reconfigure_power:solar_b"
      },
      {
        "index": 12,
        "command": "stabilize_attitude",
        "target": null,
        "label": "stabilize_attitude"
      },
      {
        "index": 13,
        "command": "switch_to_thruster_control",
        "target": null,
        "label": "switch_to_thruster_control"
      },
      {
        "index": 14,
        "command": "desaturate_wheels",
        "target": null,
        "label": "desaturate_wheels"
      },
      {
        "index": 15,
        "command": "recalibrate_star_tracker",
        "target": null,
        "label": "recalibrate_star_tracker"
      },
      {
        "index": 16,
        "command": "cross_validate_attitude",
        "target": null,
        "label": "cross_validate_attitude"
      },
      {
        "index": 17,
        "command": "switch_attitude_reference",
        "target": "star_tracker",
        "label": "switch_attitude_reference:star_tracker"
      },
      {
        "index": 18,
        "command": "switch_attitude_reference",
        "target": "gyro",
        "label": "switch_attitude_reference:gyro"
      },
      {
        "index": 19,
        "command": "switch_attitude_reference",
        "target": "sun_sensor",
        "label": "switch_attitude_reference:sun_sensor"
      },
      {
        "index": 20,
        "command": "recalibrate_imu",
        "target": null,
        "label": "recalibrate_imu"
      },
      {
        "index": 21,
        "command": "query_power_level",
        "target": "battery",
        "label": "query_power_level:battery"
      },
      {
        "index": 22,
        "command": "query_power_level",
        "target": "solar_a",
        "label": "query_power_level:solar_a"
      },
      {
        "index": 23,
        "command": "query_power_level",
        "target": "solar_b",
        "label": "query_power_level:solar_b"
      },
      {
        "index": 24,
        "command": "query_attitude",
        "target": null,
        "label": "query_attitude"
      },
      {
        "index": 25,
        "command": "query_thermal",
        "target": null,
        "label": "query_thermal"
      },
      {
        "index": 26,
        "command": "diagnostic_scan",
        "target": "power",
        "label": "diagnostic_scan:power"
      },
      {
        "index": 27,
        "command": "diagnostic_scan",
        "target": "attitude",
        "label": "diagnostic_scan:attitude"
      },
      {
        "index": 28,
        "command": "diagnostic_scan",
        "target": "comms",
        "label": "diagnostic_scan:comms"
      },
      {
        "index": 29,
        "command": "safe_mode",
        "target": null,
        "label": "safe_mode"
      },
      {
        "index": 30,
        "command": "resume_nominal",
        "target": null,
        "label": "resume_nominal"
      }
    ]
  }
}